{"learner":{"attributes":{"scikit_learn":"{\"_estimator_type\": \"regressor\"}"},"feature_names":["ret_5d","ret_20d","ret_60d","mean_return_20d","mean_return_60d","volatility_20d","volatility_60d","log_avg_volume_20d","drawdown_252d","sector_Communication Services","sector_Consumer Discretionary","sector_Consumer Staples","sector_Energy","sector_Financials","sector_Health Care","sector_Industrials","sector_Information Technology","sector_Materials","sector_Real Estate","sector_Utilities"],"feature_types":["float","float","float","float","float","float","float","float","float","float","float","float","float","float","float","float","float","float","float","float"],"gradient_booster":{"model":{"cats":{"enc":[],"feature_segments":[],"sorted_idx":[]},"gbtree_model_param":{"num_parallel_tree":"1","num_trees":"700"},"iteration_indptr":[0,1,2,3,4,5,6,7,8,9,10,11,12,13,14,15,16,17,18,19,20,21,22,23,24,25,26,27,28,29,30,31,32,33,34,35,36,37,38,39,40,41,42,43,44,45,46,47,48,49,50,51,52,53,54,55,56,57,58,59,60,61,62,63,64,65,66,67,68,69,70,71,72,73,74,75,76,77,78,79,80,81,82,83,84,85,86,87,88,89,90,91,92,93,94,95,96,97,98,99,100,101,102,103,104,105,106,107,108,109,110,111,112,113,114,115,116,117,118,119,120,121,122,123,124,125,126,127,128,129,130,131,132,133,134,135,136,137,138,139,140,141,142,143,144,145,146,147,148,149,150,151,152,153,154,155,156,157,158,159,160,161,162,163,164,165,166,167,168,169,170,171,172,173,174,175,176,177,178,179,180,181,182,183,184,185,186,187,188,189,190,191,192,193,194,195,196,197,198,199,200,201,202,203,204,205,206,207,208,209,210,211,212,213,214,215,216,217,218,219,220,221,222,223,224,225,226,227,228,229,230,231,232,233,234,235,236,237,238,239,240,241,242,243,244,245,246,247,248,249,250,251,252,253,254,255,256,257,258,259,260,261,262,263,264,265,266,267,268,269,270,271,272,273,274,275,276,277,278,279,280,281,282,283,284,285,286,287,288,289,290,291,292,293,294,295,296,297,298,299,300,301,302,303,304,305,306,307,308,309,310,311,312,313,314,315,316,317,318,319,320,321,322,323,324,325,326,327,328,329,330,331,332,333,334,335,336,337,338,339,340,341,342,343,344,345,346,347,348,349,350,351,352,353,354,355,356,357,358,359,360,361,362,363,364,365,366,367,368,369,370,371,372,373,374,375,376,377,378,379,380,381,382,383,384,385,386,387,388,389,390,391,392,393,394,395,396,397,398,399,400,401,402,403,404,405,406,407,408,409,410,411,412,413,414,415,416,417,418,419,420,421,422,423,424,425,426,427,428,429,430,431,432,433,434,435,436,437,438,439,440,441,442,443,444,445,446,447,448,449,450,451,452,453,454,455,456,457,458,459,460,461,462,463,464,465,466,467,468,469,470,471,472,473,474,475,476,477,478,479,480,481,482,483,484,485,486,487,488,489,490,491,492,493,494,495,496,497,498,499,500,501,502,503,504,505,506,507,508,509,510,511,512,513,514,515,516,517,518,519,520,521,522,523,524,525,526,527,528,529,530,531,532,533,534,535,536,537,538,539,540,541,542,543,544,545,546,547,548,549,550,551,552,553,554,555,556,557,558,559,560,561,562,563,564,565,566,567,568,569,570,571,572,573,574,575,576,577,578,579,580,581,582,583,584,585,586,587,588,589,590,591,592,593,594,595,596,597,598,599,600,601,602,603,604,605,606,607,608,609,610,611,612,613,614,615,616,617,618,619,620,621,622,623,624,625,626,627,628,629,630,631,632,633,634,635,636,637,638,639,640,641,642,643,644,645,646,647,648,649,650,651,652,653,654,655,656,657,658,659,660,661,662,663,664,665,666,667,668,669,670,671,672,673,674,675,676,677,678,679,680,681,682,683,684,685,686,687,688,689,690,691,692,693,694,695,696,697,698,699,700],"tree_info":[0,0,0,0,0,0,0,0,0,0,0,0,0,0,0,0,0,0,0,0,0,0,0,0,0,0,0,0,0,0,0,0,0,0,0,0,0,0,0,0,0,0,0,0,0,0,0,0,0,0,0,0,0,0,0,0,0,0,0,0,0,0,0,0,0,0,0,0,0,0,0,0,0,0,0,0,0,0,0,0,0,0,0,0,0,0,0,0,0,0,0,0,0,0,0,0,0,0,0,0,0,0,0,0,0,0,0,0,0,0,0,0,0,0,0,0,0,0,0,0,0,0,0,0,0,0,0,0,0,0,0,0,0,0,0,0,0,0,0,0,0,0,0,0,0,0,0,0,0,0,0,0,0,0,0,0,0,0,0,0,0,0,0,0,0,0,0,0,0,0,0,0,0,0,0,0,0,0,0,0,0,0,0,0,0,0,0,0,0,0,0,0,0,0,0,0,0,0,0,0,0,0,0,0,0,0,0,0,0,0,0,0,0,0,0,0,0,0,0,0,0,0,0,0,0,0,0,0,0,0,0,0,0,0,0,0,0,0,0,0,0,0,0,0,0,0,0,0,0,0,0,0,0,0,0,0,0,0,0,0,0,0,0,0,0,0,0,0,0,0,0,0,0,0,0,0,0,0,0,0,0,0,0,0,0,0,0,0,0,0,0,0,0,0,0,0,0,0,0,0,0,0,0,0,0,0,0,0,0,0,0,0,0,0,0,0,0,0,0,0,0,0,0,0,0,0,0,0,0,0,0,0,0,0,0,0,0,0,0,0,0,0,0,0,0,0,0,0,0,0,0,0,0,0,0,0,0,0,0,0,0,0,0,0,0,0,0,0,0,0,0,0,0,0,0,0,0,0,0,0,0,0,0,0,0,0,0,0,0,0,0,0,0,0,0,0,0,0,0,0,0,0,0,0,0,0,0,0,0,0,0,0,0,0,0,0,0,0,0,0,0,0,0,0,0,0,0,0,0,0,0,0,0,0,0,0,0,0,0,0,0,0,0,0,0,0,0,0,0,0,0,0,0,0,0,0,0,0,0,0,0,0,0,0,0,0,0,0,0,0,0,0,0,0,0,0,0,0,0,0,0,0,0,0,0,0,0,0,0,0,0,0,0,0,0,0,0,0,0,0,0,0,0,0,0,0,0,0,0,0,0,0,0,0,0,0,0,0,0,0,0,0,0,0,0,0,0,0,0,0,0,0,0,0,0,0,0,0,0,0,0,0,0,0,0,0,0,0,0,0,0,0,0,0,0,0,0,0,0,0,0,0,0,0,0,0,0,0,0,0,0,0,0,0,0,0,0,0,0,0,0,0,0,0,0,0,0,0,0,0,0,0,0,0,0,0,0,0,0,0,0,0,0,0,0,0,0,0,0,0,0,0,0,0,0,0,0,0,0,0,0,0,0,0,0,0,0,0,0,0,0,0,0,0,0,0,0,0,0,0,0,0,0,0,0,0,0,0,0,0,0,0,0,0,0,0,0,0,0,0,0,0,0,0,0,0,0,0,0,0,0,0,0,0,0,0,0,0,0,0,0,0,0,0,0,0,0,0,0,0,0,0,0,0,0,0,0,0,0,0],"trees":[{"base_weights":[4.7287365E-5,-3.5456982E-3,5.3954422E-2,-1.548113E-3,-2.80262E-2,3.1818084E-2,1.1705228E-1,1.2135425E-3,-2.0249069E-2,-3.388007E-2,-1.4041331E-2,2.110234E-2,1.6676714E-1,4.8123193E-1,1.0986584E-1,-7.640946E-5,4.8139622E-4,-1.2501108E-4,-7.9356215E-4,-9.1888476E-4,-2.1994784E-3,-3.6172403E-4,-3.4980765E-3,4.1957657E-4,4.8144674E-3,2.320821E-2,4.2951624E-3,6.3129566E-3,1.8725868E-2,2.5082796E-3,4.055254E-3],"categories":[],"categories_nodes":[],"categories_segments":[],"categories_sizes":[],"default_left":[0,0,0,0,0,0,0,0,0,0,0,0,0,0,0,0,0,0,0,0,0,0,0,0,0,0,0,0,0,0,0],"id":0,"left_children":[1,3,5,7,9,11,13,15,17,19,21,23,25,27,29,-1,-1,-1,-1,-1,-1,-1,-1,-1,-1,-1,-1,-1,-1,-1,-1],"loss_changes":[8.551964E1,2.0240314E1,3.851043E1,1.9766361E1,2.5515614E0,2.9519302E1,1.8452782E1,1.8601677E1,4.9106445E0,2.8045082E0,1.8635238E0,1.8761505E1,2.0906643E1,4.6054096E0,4.604889E0,0E0,0E0,0E0,0E0,0E0,0E0,0E0,0E0,0E0,0E0,0E0,0E0,0E0,0E0,0E0,0E0],"parents":[2147483647,0,0,1,1,2,2,3,3,4,4,5,5,6,6,7,7,8,8,9,9,10,10,11,11,12,12,13,13,14,14],"right_children":[2,4,6,8,10,12,14,16,18,20,22,24,26,28,30,-1,-1,-1,-1,-1,-1,-1,-1,-1,-1,-1,-1,-1,-1,-1,-1],"split_conditions":[5.147508E-1,1E0,-1.01418E-1,1E0,1.1967534E1,1E0,8.146752E0,3.5700947E-1,-4.2473188E-1,3.3036584E-1,9.33908E-1,1.7790498E0,-1.1615565E0,1.2807377E-1,1.3712522E-1,-7.640946E-5,4.8139622E-4,-1.2501108E-4,-7.9356215E-4,-9.1888476E-4,-2.1994784E-3,-3.6172403E-4,-3.4980765E-3,4.1957657E-4,4.8144674E-3,2.320821E-2,4.2951624E-3,6.3129566E-3,1.8725868E-2,2.5082796E-3,4.055254E-3],"split_indices":[6,11,8,14,7,12,7,6,3,6,4,4,4,1,1,0,0,0,0,0,0,0,0,0,0,0,0,0,0,0,0],"split_type":[0,0,0,0,0,0,0,0,0,0,0,0,0,0,0,0,0,0,0,0,0,0,0,0,0,0,0,0,0,0,0],"sum_hessian":[4.41511E5,4.13926E5,2.7585E4,3.82705E5,3.1221E4,2.0427E4,7.158E3,3.33463E5,4.9242E4,2.2001E4,9.22E3,1.893E4,1.497E3,1.32E2,7.026E3,2.66021E5,6.7442E4,1.3711E4,3.5531E4,2.0335E4,1.666E3,9.051E3,1.69E2,1.8016E4,9.14E2,5E1,1.447E3,5E1,8.2E1,3.46E3,3.566E3],"tree_param":{"num_deleted":"0","num_feature":"20","num_nodes":"31","size_leaf_vector":"1"}},{"base_weights":[-2.1901117E-6,-3.4461278E-3,5.147849E-2,-1.5516486E-3,-2.6634183E-2,3.8463544E-2,1.5366551E-1,8.674737E-3,-5.5797603E-3,-3.2135308E-2,-1.3424973E-2,7.4547967E-3,8.139282E-2,2.1991663E-2,1.4400668E-1,2.0305354E-3,2.3086998E-4,-2.653121E-4,2.8922124E-4,-8.696359E-4,-2.0835276E-3,-3.4067818E-4,-3.2712598E-3,1.2669097E-4,7.894905E-3,1.8327011E-3,3.670931E-3,3.4752314E-3,7.7654617E-3],"categories":[],"categories_nodes":[],"categories_segments":[],"categories_sizes":[],"default_left":[0,0,0,0,0,0,0,0,0,0,0,0,0,0,0,0,0,0,0,0,0,0,0,0,0,0,0,0,0],"id":1,"left_children":[1,3,5,7,9,11,13,15,17,19,21,23,25,-1,27,-1,-1,-1,-1,-1,-1,-1,-1,-1,-1,-1,-1,-1,-1],"loss_changes":[7.836591E1,1.8198463E1,3.682065E1,1.5777799E1,2.269268E0,3.272764E1,1.693892E1,6.2468224E0,1.3651747E1,2.5787525E0,1.8100457E0,1.1785231E1,8.531349E0,0E0,9.806839E0,0E0,0E0,0E0,0E0,0E0,0E0,0E0,0E0,0E0,0E0,0E0,0E0,0E0,0E0],"parents":[2147483647,0,0,1,1,2,2,3,3,4,4,5,5,6,6,7,7,8,8,9,9,10,10,11,11,12,12,14,14],"right_children":[2,4,6,8,10,12,14,16,18,20,22,24,26,-1,28,-1,-1,-1,-1,-1,-1,-1,-1,-1,-1,-1,-1,-1,-1],"split_conditions":[5.147508E-1,1E0,1E0,-2.9246544E-2,1.1967534E1,4.9867213E-1,-1.1615565E0,-4.7701716E-1,3.5700947E-1,3.3036584E-1,9.037744E-1,1E0,-5.3234845E-2,2.1991663E-2,7.070087E-1,2.0305354E-3,2.3086998E-4,-2.653121E-4,2.8922124E-4,-8.696359E-4,-2.0835276E-3,-3.4067818E-4,-3.2712598E-3,1.2669097E-4,7.894905E-3,1.8327011E-3,3.670931E-3,3.4752314E-3,7.7654617E-3],"split_indices":[6,11,12,1,7,4,4,8,6,6,4,19,8,0,5,0,0,0,0,0,0,0,0,0,0,0,0,0,0],"split_type":[0,0,0,0,0,0,0,0,0,0,0,0,0,0,0,0,0,0,0,0,0,0,0,0,0,0,0,0,0],"sum_hessian":[4.42009E5,4.14299E5,2.771E4,3.83014E5,3.1285E4,2.4586E4,3.124E3,1.08229E5,2.74785E5,2.2079E4,9.206E3,1.4279E4,1.0307E4,4.5E1,3.079E3,1.76E3,1.06469E5,2.26268E5,4.8517E4,2.0371E4,1.708E3,9.017E3,1.89E2,1.4106E4,1.73E2,6.901E3,3.406E3,2.481E3,5.98E2],"tree_param":{"num_deleted":"0","num_feature":"20","num_nodes":"29","size_leaf_vector":"1"}},{"base_weights":[3.7600385E-5,-6.2760366E-3,1.682418E-2,-8.866714E-3,1.5315566E-2,1.1304532E-2,8.576012E-2,-1.324913E-3,-1.40553545E-2,3.1144219E-2,6.38961E-3,7.109965E-3,4.2974383E-2,7.157866E-2,2.3615427E-1,2.7002074E-4,-1.9650214E-4,-3.6591713E-4,-9.5726474E-4,1.0816058E-3,6.280021E-4,1.1831822E-4,1.986874E-3,9.310238E-5,9.740204E-4,1.3086121E-2,1.1073354E-3,2.123817E-2,2.061615E-3,4.00806E-3,9.839754E-3],"categories":[],"categories_nodes":[],"categories_segments":[],"categories_sizes":[],"default_left":[0,0,0,0,0,0,0,0,0,0,0,0,0,0,0,0,0,0,0,0,0,0,0,0,0,0,0,0,0,0,0],"id":2,"left_children":[1,3,5,7,9,11,13,15,17,19,21,23,25,27,29,-1,-1,-1,-1,-1,-1,-1,-1,-1,-1,-1,-1,-1,-1,-1,-1],"loss_changes":[4.6838097E1,1.7963985E1,4.5950386E1,1.1219837E1,4.8579264E0,1.48529415E1,1.8995125E1,6.3061357E0,5.631016E0,6.150656E-1,3.2158585E0,1.0032018E1,3.10768E1,1.4612232E1,7.000366E0,0E0,0E0,0E0,0E0,0E0,0E0,0E0,0E0,0E0,0E0,0E0,0E0,0E0,0E0,0E0,0E0],"parents":[2147483647,0,0,1,1,2,2,3,3,4,4,5,5,6,6,7,7,8,8,9,9,10,10,11,11,12,12,13,13,14,14],"right_children":[2,4,6,8,10,12,14,16,18,20,22,24,26,28,30,-1,-1,-1,-1,-1,-1,-1,-1,-1,-1,-1,-1,-1,-1,-1,-1],"split_conditions":[3.3408618E-1,1E0,1E0,-7.2757704E-3,-3.5435718E-2,1.0938168E0,6.773401E-1,-2.0886159E-1,1E0,-3.239174E-1,1.397765E0,1E0,-6.787772E-1,-1.4381413E0,2.2752624E0,2.7002074E-4,-1.9650214E-4,-3.6591713E-4,-9.5726474E-4,1.0816058E-3,6.280021E-4,1.1831822E-4,1.986874E-3,9.310238E-5,9.740204E-4,1.3086121E-2,1.1073354E-3,2.123817E-2,2.061615E-3,4.00806E-3,9.839754E-3],"split_indices":[5,16,12,3,3,4,5,4,11,3,4,15,8,4,3,0,0,0,0,0,0,0,0,0,0,0,0,0,0,0,0],"split_type":[0,0,0,0,0,0,0,0,0,0,0,0,0,0,0,0,0,0,0,0,0,0,0,0,0,0,0,0,0,0,0],"sum_hessian":[4.41919E5,3.21136E5,1.20783E5,2.86737E5,3.4399E4,1.11835E5,8.948E3,1.16874E5,1.69863E5,1.2397E4,2.2002E4,9.8762E4,1.3073E4,8.184E3,7.64E2,3.9266E4,7.7608E4,1.53861E5,1.6002E4,8.36E3,4.037E3,2.1144E4,8.58E2,8.5293E4,1.3469E4,1.93E2,1.288E4,3.1E1,8.153E3,3.67E2,3.97E2],"tree_param":{"num_deleted":"0","num_feature":"20","num_nodes":"31","size_leaf_vector":"1"}},{"base_weights":[-1.3927401E-4,-6.1680633E-3,1.55625455E-2,-8.595358E-3,1.4157377E-2,1.0211063E-2,8.238606E-2,-1.1535789E-2,4.8504923E-3,2.8457647E-2,5.3600897E-3,5.7174023E-3,3.8419727E-2,6.3181184E-2,1.9681865E-1,-1.14791554E-4,-5.132785E-4,5.850553E-4,-6.2167856E-5,8.9050253E-4,-4.803259E-4,9.430169E-5,2.148066E-3,2.5882846E-5,5.89055E-4,1.16969E-2,1.0186132E-3,8.464991E-3,1.6879232E-3,4.5055402E-3,9.434018E-3],"categories":[],"categories_nodes":[],"categories_segments":[],"categories_sizes":[],"default_left":[0,0,0,0,0,0,0,0,0,0,0,0,0,0,0,0,0,0,0,0,0,0,0,0,0,0,0,0,0,0,0],"id":3,"left_children":[1,3,5,7,9,11,13,15,17,19,21,23,25,27,29,-1,-1,-1,-1,-1,-1,-1,-1,-1,-1,-1,-1,-1,-1,-1,-1],"loss_changes":[4.1819363E1,1.5749064E1,4.3819572E1,1.1275108E1,4.2816615E0,1.4381435E1,1.9892803E1,1.0053165E1,5.191332E0,7.0986843E-1,3.092263E0,6.613171E0,2.4385477E1,1.1700468E1,6.889435E0,0E0,0E0,0E0,0E0,0E0,0E0,0E0,0E0,0E0,0E0,0E0,0E0,0E0,0E0,0E0,0E0],"parents":[2147483647,0,0,1,1,2,2,3,3,4,4,5,5,6,6,7,7,8,8,9,9,10,10,11,11,12,12,13,13,14,14],"right_children":[2,4,6,8,10,12,14,16,18,20,22,24,26,28,30,-1,-1,-1,-1,-1,-1,-1,-1,-1,-1,-1,-1,-1,-1,-1,-1],"split_conditions":[3.3228323E-1,1E0,1E0,1E0,-1.1653879E-3,1.0049828E0,6.148925E-1,-1.9047619E-3,6.6719264E-2,3.271232E-1,1.4627389E0,-9.582773E-2,-6.787772E-1,-9.642438E-1,2.3773149E-1,-1.14791554E-4,-5.132785E-4,5.850553E-4,-6.2167856E-5,8.9050253E-4,-4.803259E-4,9.430169E-5,2.148066E-3,2.5882846E-5,5.89055E-4,1.16969E-2,1.0186132E-3,8.464991E-3,1.6879232E-3,4.5055402E-3,9.434018E-3],"split_indices":[5,16,12,13,1,4,5,1,4,5,4,8,8,4,1,0,0,0,0,0,0,0,0,0,0,0,0,0,0,0,0],"split_type":[0,0,0,0,0,0,0,0,0,0,0,0,0,0,0,0,0,0,0,0,0,0,0,0,0,0,0,0,0,0,0],"sum_hessian":[4.41766E5,3.1921E5,1.22556E5,2.85161E5,3.4049E4,1.13475E5,9.081E3,2.33994E5,5.1167E4,1.2962E4,2.1087E4,9.7889E4,1.5586E4,7.783E3,1.298E3,9.8191E4,1.35803E5,1.6418E4,3.4749E4,1.2617E4,3.45E2,2.041E4,6.77E2,7.2581E4,2.5308E4,1.9E2,1.5396E4,2.32E2,7.551E3,9.38E2,3.6E2],"tree_param":{"num_deleted":"0","num_feature":"20","num_nodes":"31","size_leaf_vector":"1"}},{"base_weights":[5.271738E-5,-3.0881397E-3,4.7057305E-2,-1.2667985E-3,-2.5568916E-2,2.3360262E-2,9.805073E-2,-3.8605938E-3,1.343508E-2,-6.5220326E-2,-2.3759628E-2,1.3946979E-2,1.6430731E-1,7.669048E-2,1.2922955E-1,1.2616099E-4,-2.8035062E-4,1.9560492E-5,1.2536177E-3,-1.1691131E-3,-3.6511552E-3,-5.2036665E-4,-9.837066E-4,2.2882737E-4,4.833866E-3,2.0277211E-2,4.2465897E-3,2.1322686E-3,4.9525322E-3,6.3324114E-3,3.4785275E-3],"categories":[],"categories_nodes":[],"categories_segments":[],"categories_sizes":[],"default_left":[0,0,0,0,0,0,0,0,0,0,0,0,0,0,0,0,0,0,0,0,0,0,0,0,0,0,0,0,0,0,0],"id":4,"left_children":[1,3,5,7,9,11,13,15,17,19,21,23,25,27,29,-1,-1,-1,-1,-1,-1,-1,-1,-1,-1,-1,-1,-1,-1,-1,-1],"loss_changes":[6.531179E1,1.6976984E1,3.346585E1,1.46276245E1,2.2171497E0,2.5088837E1,5.7935104E0,1.4425045E1,2.0846395E1,1.9728904E0,1.7165794E0,1.6490995E1,1.3263811E1,2.5247803E0,3.7359505E0,0E0,0E0,0E0,0E0,0E0,0E0,0E0,0E0,0E0,0E0,0E0,0E0,0E0,0E0,0E0,0E0],"parents":[2147483647,0,0,1,1,2,2,3,3,4,4,5,5,6,6,7,7,8,8,9,9,10,10,11,11,12,12,13,13,14,14],"right_children":[2,4,6,8,10,12,14,16,18,20,22,24,26,28,30,-1,-1,-1,-1,-1,-1,-1,-1,-1,-1,-1,-1,-1,-1,-1,-1],"split_conditions":[5.147508E-1,1E0,-1.3844436E-1,3.778364E-1,-3.046581E-1,1E0,2.040547E0,-4.127629E-3,-9.05826E-2,3.8233033E-1,2.0118885E-2,1.7790498E0,-1.1615565E0,1E0,1.3715336E-1,1.2616099E-4,-2.8035062E-4,1.9560492E-5,1.2536177E-3,-1.1691131E-3,-3.6511552E-3,-5.2036665E-4,-9.837066E-4,2.2882737E-4,4.833866E-3,2.0277211E-2,4.2465897E-3,2.1322686E-3,4.9525322E-3,6.3324114E-3,3.4785275E-3],"split_indices":[6,11,8,6,8,12,3,1,8,6,1,4,4,18,2,0,0,0,0,0,0,0,0,0,0,0,0,0,0,0,0],"split_type":[0,0,0,0,0,0,0,0,0,0,0,0,0,0,0,0,0,0,0,0,0,0,0,0,0,0,0,0,0,0,0],"sum_hessian":[4.42363E5,4.14659E5,2.7704E4,3.83589E5,3.107E4,1.892E4,8.784E3,3.26069E5,5.752E4,1.347E3,2.9723E4,1.7741E4,1.179E3,5.224E3,3.56E3,1.31971E5,1.94098E5,3.965E4,1.787E4,9.26E2,4.21E2,1.7391E4,1.2332E4,1.7016E4,7.25E2,4.4E1,1.135E3,4.921E3,3.03E2,4.86E2,3.074E3],"tree_param":{"num_deleted":"0","num_feature":"20","num_nodes":"31","size_leaf_vector":"1"}},{"base_weights":[7.776832E-6,-3.1626737E-3,4.7435734E-2,-5.6478153E-3,1.1868804E-2,2.4623986E-2,9.641245E-2,2.0241863E-3,-1.0913089E-2,-4.556802E-3,3.3819508E-2,2.074283E-2,1.8025407E-1,7.611377E-2,1.272701E-1,-9.060884E-6,6.7979447E-4,-3.9019814E-4,1.540494E-4,2.1051355E-3,-2.8036936E-4,8.3632045E-4,2.2388368E-3,5.456662E-4,7.4884566E-3,1.5518391E-2,1.79765E-3,2.4551281E-3,-1.1284921E-4,6.86912E-3,3.3443142E-3],"categories":[],"categories_nodes":[],"categories_segments":[],"categories_sizes":[],"default_left":[0,0,0,0,0,0,0,0,0,0,0,0,0,0,0,0,0,0,0,0,0,0,0,0,0,0,0,0,0,0,0],"id":5,"left_children":[1,3,5,7,9,11,13,15,17,19,21,23,25,27,29,-1,-1,-1,-1,-1,-1,-1,-1,-1,-1,-1,-1,-1,-1,-1,-1],"loss_changes":[6.6468925E1,1.5477426E1,3.0927517E1,1.4363186E1,2.1195934E1,1.1389736E1,5.45282E0,6.947416E0,7.084736E0,1.2033302E1,6.085758E0,1.0748489E1,1.843095E1,2.4381695E0,5.449589E0,0E0,0E0,0E0,0E0,0E0,0E0,0E0,0E0,0E0,0E0,0E0,0E0,0E0,0E0,0E0,0E0],"parents":[2147483647,0,0,1,1,2,2,3,3,4,4,5,5,6,6,7,7,8,8,9,9,10,10,11,11,12,12,13,13,14,14],"right_children":[2,4,6,8,10,12,14,16,18,20,22,24,26,28,30,-1,-1,-1,-1,-1,-1,-1,-1,-1,-1,-1,-1,-1,-1,-1,-1],"split_conditions":[5.147508E-1,3.778364E-1,-1.3844436E-1,-4.127629E-3,-1.4535335E-1,5.44172E-1,2.110707E0,1E0,1E0,-4.7701716E-1,1E0,1E0,-4.129293E-1,6.853499E-1,1.3715336E-1,-9.060884E-6,6.7979447E-4,-3.9019814E-4,1.540494E-4,2.1051355E-3,-2.8036936E-4,8.3632045E-4,2.2388368E-3,5.456662E-4,7.4884566E-3,1.5518391E-2,1.79765E-3,2.4551281E-3,-1.1284921E-4,6.86912E-3,3.3443142E-3],"split_indices":[6,6,8,1,8,2,3,16,16,8,15,19,8,2,2,0,0,0,0,0,0,0,0,0,0,0,0,0,0,0,0],"split_type":[0,0,0,0,0,0,0,0,0,0,0,0,0,0,0,0,0,0,0,0,0,0,0,0,0,0,0,0,0,0,0],"sum_hessian":[4.42017E5,4.14324E5,2.7693E4,3.55548E5,5.8776E4,1.8899E4,8.794E3,1.447E5,2.10848E5,3.362E4,2.5156E4,1.8445E4,4.54E2,5.316E3,3.478E3,1.30043E5,1.4657E4,1.8652E5,2.4328E4,2.02E3,3.16E4,2.1967E4,3.189E3,1.8247E4,1.98E2,1.15E2,3.39E2,4.961E3,3.55E2,4.58E2,3.02E3],"tree_param":{"num_deleted":"0","num_feature":"20","num_nodes":"31","size_leaf_vector":"1"}},{"base_weights":[1.5400977E-4,-2.8978186E-3,4.5923606E-2,-1.133486E-3,-2.452064E-2,3.398918E-2,1.3976906E-1,1.4244806E-3,-1.8423831E-2,-3.012939E-2,-1.1094449E-2,5.133895E-3,7.34024E-2,1.9868212E-2,1.3066897E-1,-5.6935616E-5,4.3626127E-4,9.083311E-4,-6.057359E-4,-8.130457E-4,-1.9819331E-3,-2.7868355E-4,-3.164549E-3,1.1479044E-3,-6.303804E-4,9.056014E-3,2.0203416E-3,3.037927E-3,6.6482923E-3],"categories":[],"categories_nodes":[],"categories_segments":[],"categories_sizes":[],"default_left":[0,0,0,0,0,0,0,0,0,0,0,0,0,0,0,0,0,0,0,0,0,0,0,0,0,0,0,0,0],"id":6,"left_children":[1,3,5,7,9,11,13,15,17,19,21,23,25,-1,27,-1,-1,-1,-1,-1,-1,-1,-1,-1,-1,-1,-1,-1,-1],"loss_changes":[6.173565E1,1.5805319E1,3.091069E1,1.6944023E1,2.3498993E0,2.787801E1,1.4338993E1,1.4544379E1,4.25226E0,2.3844852E0,1.560216E0,1.2271498E1,1.4220554E1,0E0,8.075756E0,0E0,0E0,0E0,0E0,0E0,0E0,0E0,0E0,0E0,0E0,0E0,0E0,0E0,0E0],"parents":[2147483647,0,0,1,1,2,2,3,3,4,4,5,5,6,6,7,7,8,8,9,9,10,10,11,11,12,12,14,14],"right_children":[2,4,6,8,10,12,14,16,18,20,22,24,26,-1,28,-1,-1,-1,-1,-1,-1,-1,-1,-1,-1,-1,-1,-1,-1],"split_conditions":[5.147508E-1,1E0,1E0,1E0,1.1967534E1,7.1314305E-2,-1.1615565E0,3.5700947E-1,-3.7468636E-1,3.3036584E-1,9.33908E-1,1.2107895E1,-6.787772E-1,1.9868212E-2,6.773401E-1,-5.6935616E-5,4.3626127E-4,9.083311E-4,-6.057359E-4,-8.130457E-4,-1.9819331E-3,-2.7868355E-4,-3.164549E-3,1.1479044E-3,-6.303804E-4,9.056014E-3,2.0203416E-3,3.037927E-3,6.6482923E-3],"split_indices":[6,11,12,14,7,2,4,6,8,6,4,7,8,0,5,0,0,0,0,0,0,0,0,0,0,0,0,0,0],"split_type":[0,0,0,0,0,0,0,0,0,0,0,0,0,0,0,0,0,0,0,0,0,0,0,0,0,0,0,0,0],"sum_hessian":[4.41951E5,4.14328E5,2.7623E4,3.83078E5,3.125E4,2.4513E4,3.11E3,3.3371E5,4.9368E4,2.2035E4,9.215E3,1.4156E4,1.0357E4,4.7E1,3.063E3,2.66271E5,6.7439E4,1.725E3,4.7643E4,2.0332E4,1.703E3,9.048E3,1.67E2,6.244E3,7.912E3,2.61E2,1.0096E4,2.323E3,7.4E2],"tree_param":{"num_deleted":"0","num_feature":"20","num_nodes":"29","size_leaf_vector":"1"}},{"base_weights":[4.0533196E-5,-2.9021793E-3,4.430015E-2,7.44882E-2,-3.380146E-3,2.2142291E-2,9.200774E-2,2.081619E-1,6.753671E-2,-1.2685691E-3,-1.9076627E-2,1.3137597E-2,1.5732883E-1,3.3000565E-1,8.583395E-2,8.060078E-3,2.8625766E-3,1.5649493E-3,4.139033E-3,-1.6201261E-4,2.1394598E-4,-1.8410705E-4,-7.1819074E-4,1.8498342E-4,5.226853E-3,2.1069402E-2,4.019487E-3,4.853636E-4,1.149026E-2,1.9204766E-3,3.6392624E-3],"categories":[],"categories_nodes":[],"categories_segments":[],"categories_sizes":[],"default_left":[0,0,0,0,0,0,0,0,0,0,0,0,0,0,0,0,0,0,0,0,0,0,0,0,0,0,0,0,0,0,0],"id":7,"left_children":[1,3,5,7,9,11,13,15,17,19,21,23,25,27,29,-1,-1,-1,-1,-1,-1,-1,-1,-1,-1,-1,-1,-1,-1,-1,-1],"loss_changes":[5.7581203E1,1.5331074E1,2.9119843E1,2.2798853E0,1.3653927E1,2.2900723E1,1.2678223E1,6.926913E-1,2.5810127E0,1.2604134E1,3.0716076E0,1.9816282E1,1.4437408E1,3.591856E0,6.5501785E0,0E0,0E0,0E0,0E0,0E0,0E0,0E0,0E0,0E0,0E0,0E0,0E0,0E0,0E0,0E0,0E0],"parents":[2147483647,0,0,1,1,2,2,3,3,4,4,5,5,6,6,7,7,8,8,9,9,10,10,11,11,12,12,13,13,14,14],"right_children":[2,4,6,8,10,12,14,16,18,20,22,24,26,28,30,-1,-1,-1,-1,-1,-1,-1,-1,-1,-1,-1,-1,-1,-1,-1,-1],"split_conditions":[5.147508E-1,-4.7701716E-1,-1.3844436E-1,-3.8149732E-1,1E0,1E0,9.016901E0,4.749112E-1,1E0,2.972092E-1,-4.2473188E-1,1.7790498E0,-1.1615565E0,-9.4844505E-2,6.224224E-1,8.060078E-3,2.8625766E-3,1.5649493E-3,4.139033E-3,-1.6201261E-4,2.1394598E-4,-1.8410705E-4,-7.1819074E-4,1.8498342E-4,5.226853E-3,2.1069402E-2,4.019487E-3,4.853636E-4,1.149026E-2,1.9204766E-3,3.6392624E-3],"split_indices":[6,8,8,2,14,12,7,6,10,5,3,4,4,8,6,0,0,0,0,0,0,0,0,0,0,0,0,0,0,0,0],"split_type":[0,0,0,0,0,0,0,0,0,0,0,0,0,0,0,0,0,0,0,0,0,0,0,0,0,0,0,0,0,0,0],"sum_hessian":[4.42079E5,4.14522E5,2.7557E4,2.539E3,4.11983E5,1.8823E4,8.734E3,1.18E2,2.421E3,3.6314E5,4.8843E4,1.7653E4,1.17E3,2.14E2,8.52E3,7.2E1,4.6E1,1.995E3,4.26E2,2.43416E5,1.19724E5,1.3348E4,3.5495E4,1.6926E4,7.27E2,4.2E1,1.128E3,3.2E1,1.82E2,5.285E3,3.235E3],"tree_param":{"num_deleted":"0","num_feature":"20","num_nodes":"31","size_leaf_vector":"1"}},{"base_weights":[1.3039228E-4,-2.925401E-3,4.0628746E-2,6.52305E-3,-6.639547E-3,2.2163644E-2,9.114067E-2,7.363941E-2,5.537634E-3,-4.4526574E-3,-2.3426302E-2,1.2684672E-2,1.3900079E-1,3.288453E-1,8.497954E-2,6.5876585E-3,1.8682337E-3,1.3169464E-4,1.0187468E-3,-2.2404299E-4,3.237351E-4,-6.159435E-4,-1.2281173E-3,1.8747144E-4,4.5073587E-3,1.9447757E-2,3.630011E-3,1.8398516E-2,7.901947E-3,-3.8995535E-5,2.8057524E-3],"categories":[],"categories_nodes":[],"categories_segments":[],"categories_sizes":[],"default_left":[0,0,0,0,0,0,0,0,0,0,0,0,0,0,0,0,0,0,0,0,0,0,0,0,0,0,0,0,0,0,0],"id":8,"left_children":[1,3,5,7,9,11,13,15,17,19,21,23,25,27,29,-1,-1,-1,-1,-1,-1,-1,-1,-1,-1,-1,-1,-1,-1,-1,-1],"loss_changes":[5.4769833E1,1.4441031E1,2.8945744E1,7.673495E0,1.0842195E1,2.5174706E1,1.2009819E1,2.7025003E0,3.730543E0,1.2013912E1,1.7184162E0,1.8618376E1,1.5207993E1,3.0205345E0,5.982544E0,0E0,0E0,0E0,0E0,0E0,0E0,0E0,0E0,0E0,0E0,0E0,0E0,0E0,0E0,0E0,0E0],"parents":[2147483647,0,0,1,1,2,2,3,3,4,4,5,5,6,6,7,7,8,8,9,9,10,10,11,11,12,12,13,13,14,14],"right_children":[2,4,6,8,10,12,14,16,18,20,22,24,26,28,30,-1,-1,-1,-1,-1,-1,-1,-1,-1,-1,-1,-1,-1,-1,-1,-1],"split_conditions":[4.9986574E-1,-2.9246544E-2,-1.01418E-1,-4.7701716E-1,1E0,1E0,9.016901E0,-3.8149732E-1,1E0,3.5700947E-1,3.4802756E-1,1.7790498E0,-1.1615565E0,8.759129E-1,1.0826462E1,6.5876585E-3,1.8682337E-3,1.3169464E-4,1.0187468E-3,-2.2404299E-4,3.237351E-4,-6.159435E-4,-1.2281173E-3,1.8747144E-4,4.5073587E-3,1.9447757E-2,3.630011E-3,1.8398516E-2,7.901947E-3,-3.8995535E-5,2.8057524E-3],"split_indices":[6,1,8,8,14,12,7,2,12,6,6,4,4,4,7,0,0,0,0,0,0,0,0,0,0,0,0,0,0,0,0],"split_type":[0,0,0,0,0,0,0,0,0,0,0,0,0,0,0,0,0,0,0,0,0,0,0,0,0,0,0,0,0,0,0],"sum_hessian":[4.42543E5,4.11497E5,3.1046E4,1.16109E5,2.95388E5,2.2741E4,8.305E3,1.674E3,1.14435E5,2.6135E5,3.4038E4,2.104E4,1.701E3,2.03E2,8.102E3,1.14E2,1.56E3,1.1E5,4.435E3,2.18194E5,4.3156E4,2.9221E4,4.817E3,2.0105E4,9.35E2,5.2E1,1.649E3,3E1,1.73E2,7.3E2,7.372E3],"tree_param":{"num_deleted":"0","num_feature":"20","num_nodes":"31","size_leaf_vector":"1"}},{"base_weights":[-1.3153757E-5,-2.7251134E-3,4.0677298E-2,-1.04166E-3,-2.3358174E-2,2.3055512E-2,9.125192E-2,1.3692091E-3,-1.7320884E-2,-2.8469346E-2,-9.150818E-3,1.4444158E-2,1.2871236E-1,3.5860005E-1,8.414568E-2,-3.841601E-5,4.668482E-4,8.964615E-4,-5.710846E-4,-7.6755625E-4,-1.8742788E-3,-2.1140555E-4,-3.2706303E-3,1.3848942E-3,-2.8581222E-4,1.9683234E-2,3.286544E-3,7.7811577E-3,1.7480323E-2,9.5795105E-5,2.804453E-3],"categories":[],"categories_nodes":[],"categories_segments":[],"categories_sizes":[],"default_left":[0,0,0,0,0,0,0,0,0,0,0,0,0,0,0,0,0,0,0,0,0,0,0,0,0,0,0,0,0,0,0],"id":9,"left_children":[1,3,5,7,9,11,13,15,17,19,21,23,25,27,29,-1,-1,-1,-1,-1,-1,-1,-1,-1,-1,-1,-1,-1,-1,-1,-1],"loss_changes":[4.877528E1,1.4392794E1,2.4597343E1,1.5038355E1,2.266653E0,1.8625431E1,1.338044E1,1.2551019E1,4.004121E0,2.2417736E0,1.7301779E0,1.4413294E1,1.5194908E1,3.2712116E0,5.2508774E0,0E0,0E0,0E0,0E0,0E0,0E0,0E0,0E0,0E0,0E0,0E0,0E0,0E0,0E0,0E0,0E0],"parents":[2147483647,0,0,1,1,2,2,3,3,4,4,5,5,6,6,7,7,8,8,9,9,10,10,11,11,12,12,13,13,14,14],"right_children":[2,4,6,8,10,12,14,16,18,20,22,24,26,28,30,-1,-1,-1,-1,-1,-1,-1,-1,-1,-1,-1,-1,-1,-1,-1,-1],"split_conditions":[5.147508E-1,1E0,-1.01418E-1,1E0,1.2040289E1,1E0,9.016901E0,3.778364E-1,-3.7468636E-1,3.3036584E-1,9.33908E-1,1.2093767E1,-1.1615565E0,6.542235E-1,1.0944296E1,-3.841601E-5,4.668482E-4,8.964615E-4,-5.710846E-4,-7.6755625E-4,-1.8742788E-3,-2.1140555E-4,-3.2706303E-3,1.3848942E-3,-2.8581222E-4,1.9683234E-2,3.286544E-3,7.7811577E-3,1.7480323E-2,9.5795105E-5,2.804453E-3],"split_indices":[6,11,8,14,7,12,7,6,8,6,4,7,4,5,7,0,0,0,0,0,0,0,0,0,0,0,0,0,0,0,0],"split_type":[0,0,0,0,0,0,0,0,0,0,0,0,0,0,0,0,0,0,0,0,0,0,0,0,0,0,0,0,0,0,0],"sum_hessian":[4.42009E5,4.14396E5,2.7613E4,3.83143E5,3.1253E4,2.0484E4,7.129E3,3.33722E5,4.9421E4,2.2978E4,8.275E3,1.8946E4,1.538E3,1.78E2,6.951E3,2.81219E5,5.2503E4,1.729E3,4.7692E4,2.1191E4,1.787E3,8.11E3,1.65E2,8.154E3,1.0792E4,4.8E1,1.49E3,1.31E2,4.7E1,7.2E2,6.231E3],"tree_param":{"num_deleted":"0","num_feature":"20","num_nodes":"31","size_leaf_vector":"1"}},{"base_weights":[1.2982157E-7,-2.7610117E-3,4.1200623E-2,-1.1215716E-3,-2.2823315E-2,2.6278539E-2,1.003599E-1,6.169895E-3,-5.7045845E-3,-2.7962344E-2,-9.1744615E-3,1.715193E-2,1.2653364E-1,4.35427E-1,9.285124E-2,1.0702068E-3,1.4446475E-4,-5.8262784E-4,-8.160404E-5,-7.479357E-4,-1.9111175E-3,7.540244E-4,-4.4195756E-4,1.4515088E-3,-2.1064297E-4,1.9867172E-2,3.3483822E-3,6.797628E-3,2.7443308E-2,1.5269564E-3,3.4388732E-3],"categories":[],"categories_nodes":[],"categories_segments":[],"categories_sizes":[],"default_left":[0,0,0,0,0,0,0,0,0,0,0,0,0,0,0,0,0,0,0,0,0,0,0,0,0,0,0,0,0,0,0],"id":10,"left_children":[1,3,5,7,9,11,13,15,17,19,21,23,25,27,29,-1,-1,-1,-1,-1,-1,-1,-1,-1,-1,-1,-1,-1,-1,-1,-1],"loss_changes":[5.0278103E1,1.3621742E1,2.4485561E1,1.2795712E1,2.1913872E0,2.027185E1,1.3832844E1,5.9025044E0,9.62381E0,2.4495068E0,1.63498E0,1.535317E1,1.437118E1,1.101951E1,4.962902E0,0E0,0E0,0E0,0E0,0E0,0E0,0E0,0E0,0E0,0E0,0E0,0E0,0E0,0E0,0E0,0E0],"parents":[2147483647,0,0,1,1,2,2,3,3,4,4,5,5,6,6,7,7,8,8,9,9,10,10,11,11,12,12,13,13,14,14],"right_children":[2,4,6,8,10,12,14,16,18,20,22,24,26,28,30,-1,-1,-1,-1,-1,-1,-1,-1,-1,-1,-1,-1,-1,-1,-1,-1],"split_conditions":[5.147508E-1,1E0,-7.1428575E-2,-8.613666E-3,1.2014952E1,1E0,8.146752E0,-3.9249146E-1,-1.5271914E-1,3.3036584E-1,-5.882353E-2,1.2093767E1,-1.2685897E0,6.542235E-1,1.1816374E1,1.0702068E-3,1.4446475E-4,-5.8262784E-4,-8.160404E-5,-7.479357E-4,-1.9111175E-3,7.540244E-4,-4.4195756E-4,1.4515088E-3,-2.1064297E-4,1.9867172E-2,3.3483822E-3,6.797628E-3,2.7443308E-2,1.5269564E-3,3.4388732E-3],"split_indices":[6,11,8,1,7,12,7,8,8,6,1,7,4,5,7,0,0,0,0,0,0,0,0,0,0,0,0,0,0,0,0],"split_type":[0,0,0,0,0,0,0,0,0,0,0,0,0,0,0,0,0,0,0,0,0,0,0,0,0,0,0,0,0,0,0],"sum_hessian":[4.41938E5,4.14184E5,2.7754E4,3.82902E5,3.1282E4,2.217E4,5.584E3,1.47778E5,2.35124E5,2.2719E4,8.563E3,2.0326E4,1.844E3,1.16E2,5.468E3,6.479E3,1.41299E5,4.2009E4,1.93115E5,2.0952E4,1.767E3,1.19E3,7.373E3,8.867E3,1.1459E4,4.4E1,1.8E3,8.6E1,3E1,1.875E3,3.593E3],"tree_param":{"num_deleted":"0","num_feature":"20","num_nodes":"31","size_leaf_vector":"1"}},{"base_weights":[-6.873578E-5,-2.925299E-3,3.7755895E-2,7.240076E-2,-3.3440094E-3,2.7478296E-2,1.1955717E-1,1.8923937E-1,6.553127E-2,-1.7958579E-3,-2.2215553E-2,7.956887E-3,7.092029E-2,3.9855316E-1,1.0857448E-1,7.411158E-3,2.0529665E-3,-2.24955E-3,2.0784528E-3,1.6655931E-5,-5.3058594E-4,-2.1169188E-3,-6.069249E-4,2.7854205E-3,3.7900572E-6,2.3608357E-3,-2.3683435E-5,5.5052754E-3,2.1896984E-2,2.6340259E-3,6.428792E-3],"categories":[],"categories_nodes":[],"categories_segments":[],"categories_sizes":[],"default_left":[0,0,0,0,0,0,0,0,0,0,0,0,0,0,0,0,0,0,0,0,0,0,0,0,0,0,0,0,0,0,0],"id":11,"left_children":[1,3,5,7,9,11,13,15,17,19,21,23,25,27,29,-1,-1,-1,-1,-1,-1,-1,-1,-1,-1,-1,-1,-1,-1,-1,-1],"loss_changes":[4.7727592E1,1.2951877E1,2.605286E1,1.7472086E0,1.1932111E1,2.3367159E1,1.0360161E1,7.5855446E-1,1.1598053E0,1.4103882E1,2.9596672E0,1.2640626E1,4.7673836E0,8.476385E0,7.217201E0,0E0,0E0,0E0,0E0,0E0,0E0,0E0,0E0,0E0,0E0,0E0,0E0,0E0,0E0,0E0,0E0],"parents":[2147483647,0,0,1,1,2,2,3,3,4,4,5,5,6,6,7,7,8,8,9,9,10,10,11,11,12,12,13,13,14,14],"right_children":[2,4,6,8,10,12,14,16,18,20,22,24,26,28,30,-1,-1,-1,-1,-1,-1,-1,-1,-1,-1,-1,-1,-1,-1,-1,-1],"split_conditions":[4.9986574E-1,-4.7701716E-1,1E0,-3.8149732E-1,1E0,-1.5271914E-1,-3.8300538E-1,4.749112E-1,1.0301552E1,1E0,-3.046581E-1,-6.787772E-1,6.853499E-1,8.146752E0,7.070087E-1,7.411158E-3,2.0529665E-3,-2.24955E-3,2.0784528E-3,1.6655931E-5,-5.3058594E-4,-2.1169188E-3,-6.069249E-4,2.7854205E-3,3.7900572E-6,2.3608357E-3,-2.3683435E-5,5.5052754E-3,2.1896984E-2,2.6340259E-3,6.428792E-3],"split_indices":[6,8,12,2,11,8,8,6,7,14,8,8,2,7,5,0,0,0,0,0,0,0,0,0,0,0,0,0,0,0,0],"split_type":[0,0,0,0,0,0,0,0,0,0,0,0,0,0,0,0,0,0,0,0,0,0,0,0,0,0,0,0,0,0,0],"sum_hessian":[4.4173E5,4.10718E5,3.1012E4,2.265E3,4.08453E5,2.7557E4,3.455E3,1.18E2,2.147E3,3.77493E5,3.096E4,1.9018E4,8.539E3,1.24E2,3.331E3,7.6E1,4.2E1,5.3E1,2.094E3,3.28841E5,4.8652E4,1.213E3,2.9747E4,1.601E3,1.7417E4,7.704E3,8.35E2,8E1,4.4E1,2.792E3,5.39E2],"tree_param":{"num_deleted":"0","num_feature":"20","num_nodes":"31","size_leaf_vector":"1"}},{"base_weights":[5.5193086E-5,-3.746505E-3,2.6596995E-2,3.0057426E-3,-8.270129E-3,8.655242E-3,6.3666485E-2,1.0217738E-2,-2.0274292E-3,-1.0212296E-2,5.3402586E-3,2.651805E-4,1.280087E-1,5.502976E-2,1.0604716E-1,7.796645E-4,1.2538266E-4,-1.3236394E-4,5.013707E-4,-3.9446255E-4,6.572038E-5,-8.282017E-4,2.6003493E-4,7.710651E-4,-5.10191E-4,1.0917837E-2,3.4196773E-3,1.3933848E-3,3.7075763E-3,3.8494307E-3,7.0612674E-4],"categories":[],"categories_nodes":[],"categories_segments":[],"categories_sizes":[],"default_left":[0,0,0,0,0,0,0,0,0,0,0,0,0,0,0,0,0,0,0,0,0,0,0,0,0,0,0,0,0,0,0],"id":12,"left_children":[1,3,5,7,9,11,13,15,17,19,21,23,25,27,29,-1,-1,-1,-1,-1,-1,-1,-1,-1,-1,-1,-1,-1,-1,-1,-1],"loss_changes":[4.4600464E1,1.1809522E1,3.6825737E1,5.630594E0,6.120487E0,3.7369026E1,6.5732727E0,6.069575E0,4.0820765E0,7.380089E0,3.169973E0,1.53257885E1,7.8752594E0,8.797909E0,5.5827827E0,0E0,0E0,0E0,0E0,0E0,0E0,0E0,0E0,0E0,0E0,0E0,0E0,0E0,0E0,0E0,0E0],"parents":[2147483647,0,0,1,1,2,2,3,3,4,4,5,5,6,6,7,7,8,8,9,9,10,10,11,11,12,12,13,13,14,14],"right_children":[2,4,6,8,10,12,14,16,18,20,22,24,26,28,30,-1,-1,-1,-1,-1,-1,-1,-1,-1,-1,-1,-1,-1,-1,-1,-1],"split_conditions":[4.2919993E-1,-5.6338026E-3,-1.2380064E-1,-4.9009673E-2,1E0,1E0,6.224224E-1,2.3374252E-1,1E0,1E0,-2.0833333E-1,-7.0187646E-1,-4.022716E-1,1E0,6.853499E-1,7.796645E-4,1.2538266E-4,-1.3236394E-4,5.013707E-4,-3.9446255E-4,6.572038E-5,-8.282017E-4,2.6003493E-4,7.710651E-4,-5.10191E-4,1.0917837E-2,3.4196773E-3,1.3933848E-3,3.7075763E-3,3.8494307E-3,7.0612674E-4],"split_indices":[6,1,8,2,16,12,6,6,16,13,8,3,8,15,2,0,0,0,0,0,0,0,0,0,0,0,0,0,0,0,0],"split_type":[0,0,0,0,0,0,0,0,0,0,0,0,0,0,0,0,0,0,0,0,0,0,0,0,0,0,0,0,0,0,0],"sum_hessian":[4.41988E5,3.86614E5,5.5374E4,1.55097E5,2.31517E5,3.7319E4,1.8055E4,6.3752E4,9.1345E4,2.0261E5,2.8907E4,3.4873E4,2.446E3,1.5009E4,3.046E3,1.7644E4,4.6108E4,8.1039E4,1.0306E4,1.63827E5,3.8783E4,2.647E3,2.626E4,1.4103E4,2.077E4,1.3E2,2.316E3,1.3347E4,1.662E3,2.396E3,6.5E2],"tree_param":{"num_deleted":"0","num_feature":"20","num_nodes":"31","size_leaf_vector":"1"}},{"base_weights":[-1.0553054E-4,-2.3789888E-3,4.249202E-2,1.0924273E-2,-4.783819E-3,1.2810499E-2,7.576953E-2,9.309499E-3,4.478211E-2,-3.2397998E-3,-2.293294E-2,4.327007E-3,1.2685138E-1,9.782916E-2,3.4007486E-2,1.7383693E-3,2.486138E-4,8.4221706E-4,3.6513265E-3,-3.0817064E-5,-5.498791E-4,-1.8349624E-3,-6.4504205E-4,1.2180492E-3,-6.213513E-4,1.1472407E-2,2.5456115E-3,2.1757392E-2,2.5372743E-3,-8.05208E-3,1.3800318E-3],"categories":[],"categories_nodes":[],"categories_segments":[],"categories_sizes":[],"default_left":[0,0,0,0,0,0,0,0,0,0,0,0,0,0,0,0,0,0,0,0,0,0,0,0,0,0,0,0,0,0,0],"id":13,"left_children":[1,3,5,7,9,11,13,15,17,19,21,23,25,27,29,-1,-1,-1,-1,-1,-1,-1,-1,-1,-1,-1,-1,-1,-1,-1,-1],"loss_changes":[4.278097E1,1.3417148E1,2.209803E1,3.5054755E0,9.951691E0,1.144258E1,9.696018E0,3.041885E0,3.7286248E0,1.0928041E1,1.5132837E0,1.0017063E1,8.60473E0,5.702893E1,1.330722E1,0E0,0E0,0E0,0E0,0E0,0E0,0E0,0E0,0E0,0E0,0E0,0E0,0E0,0E0,0E0,0E0],"parents":[2147483647,0,0,1,1,2,2,3,3,4,4,5,5,6,6,7,7,8,8,9,9,10,10,11,11,12,12,13,13,14,14],"right_children":[2,4,6,8,10,12,14,16,18,20,22,24,26,28,30,-1,-1,-1,-1,-1,-1,-1,-1,-1,-1,-1,-1,-1,-1,-1,-1],"split_conditions":[5.432207E-1,-3.3195022E-2,4.8859935E-2,1E0,1E0,1E0,1.2578683E1,-4.7701716E-1,4.5879582E-1,1E0,-3.046581E-1,1.2107895E1,-3.8300538E-1,-6.787772E-1,-6.787772E-1,1.7383693E-3,2.486138E-4,8.4221706E-4,3.6513265E-3,-3.0817064E-5,-5.498791E-4,-1.8349624E-3,-6.4504205E-4,1.2180492E-3,-6.213513E-4,1.1472407E-2,2.5456115E-3,2.1757392E-2,2.5372743E-3,-8.05208E-3,1.3800318E-3],"split_indices":[6,0,2,12,11,12,7,8,6,14,8,7,8,8,8,0,0,0,0,0,0,0,0,0,0,0,0,0,0,0,0],"split_type":[0,0,0,0,0,0,0,0,0,0,0,0,0,0,0,0,0,0,0,0,0,0,0,0,0,0,0,0,0,0,0],"sum_hessian":[4.41763E5,4.19386E5,2.2377E4,6.42E4,3.55186E5,1.1832E4,1.0545E4,6.1285E4,2.915E3,3.27346E5,2.784E4,1.1018E4,8.14E2,6.895E3,3.65E3,1.255E3,6.003E4,2.401E3,5.14E2,2.85493E5,4.1853E4,9.96E2,2.6844E4,4.499E3,6.519E3,1.09E2,7.05E2,1.37E2,6.758E3,1.35E2,3.515E3],"tree_param":{"num_deleted":"0","num_feature":"20","num_nodes":"31","size_leaf_vector":"1"}},{"base_weights":[3.5587567E-5,-3.405283E-3,2.5052324E-2,2.7927016E-3,-7.770883E-3,6.275716E-3,6.0133483E-2,1.0172664E-2,-1.5299056E-3,-1.1296583E-2,-9.875183E-4,-2.1098286E-3,1.3034916E-1,5.0603937E-2,9.648926E-2,8.4562163E-4,1.1440741E-4,3.884952E-6,-7.392068E-4,-8.214607E-4,-2.75956E-4,2.8822494E-3,-4.129494E-5,6.725364E-4,-5.4698554E-4,-8.791808E-5,4.5849597E-3,1.2597109E-3,3.5409662E-3,1.0812479E-2,2.7531036E-3],"categories":[],"categories_nodes":[],"categories_segments":[],"categories_sizes":[],"default_left":[0,0,0,0,0,0,0,0,0,0,0,0,0,0,0,0,0,0,0,0,0,0,0,0,0,0,0,0,0,0,0],"id":14,"left_children":[1,3,5,7,9,11,13,15,17,19,21,23,25,27,29,-1,-1,-1,-1,-1,-1,-1,-1,-1,-1,-1,-1,-1,-1,-1,-1],"loss_changes":[3.8070274E1,1.0519962E1,3.5219707E1,5.1259923E0,5.454977E0,3.6255093E1,6.4268265E0,6.7970576E0,3.8869138E0,5.0623245E0,2.9418247E0,1.2908885E1,6.6200333E0,8.552582E0,4.6259003E0,0E0,0E0,0E0,0E0,0E0,0E0,0E0,0E0,0E0,0E0,0E0,0E0,0E0,0E0,0E0,0E0],"parents":[2147483647,0,0,1,1,2,2,3,3,4,4,5,5,6,6,7,7,8,8,9,9,10,10,11,11,12,12,13,13,14,14],"right_children":[2,4,6,8,10,12,14,16,18,20,22,24,26,28,30,-1,-1,-1,-1,-1,-1,-1,-1,-1,-1,-1,-1,-1,-1,-1,-1],"split_conditions":[4.3286708E-1,-3.3885718E-3,-1.3844436E-1,-5.8715902E-2,2.7251935E-1,1E0,6.051633E-1,2.3374252E-1,1E0,-1.4827217E-1,-4.555747E-1,-7.6389575E-1,1.1256229E1,1E0,8.146752E0,8.4562163E-4,1.1440741E-4,3.884952E-6,-7.392068E-4,-8.214607E-4,-2.75956E-4,2.8822494E-3,-4.129494E-5,6.725364E-4,-5.4698554E-4,-8.791808E-5,4.5849597E-3,1.2597109E-3,3.5409662E-3,1.0812479E-2,2.7531036E-3],"split_indices":[6,1,8,2,5,12,6,6,18,8,8,3,7,15,7,0,0,0,0,0,0,0,0,0,0,0,0,0,0,0,0],"split_type":[0,0,0,0,0,0,0,0,0,0,0,0,0,0,0,0,0,0,0,0,0,0,0,0,0,0,0,0,0,0,0],"sum_hessian":[4.42247E5,3.88776E5,5.3471E4,1.60665E5,2.28111E5,3.4834E4,1.8637E4,5.9347E4,1.01318E5,1.5009E5,7.8021E4,3.2633E4,2.201E3,1.4777E4,3.86E3,1.5477E4,4.387E4,9.4533E4,6.785E3,1.7308E4,1.32782E5,3.06E2,7.7715E4,1.2941E4,1.9692E4,3.18E2,1.883E3,1.3111E4,1.666E3,6.1E1,3.799E3],"tree_param":{"num_deleted":"0","num_feature":"20","num_nodes":"31","size_leaf_vector":"1"}},{"base_weights":[-1.5102708E-4,-2.3095668E-3,3.9976317E-2,-3.4040853E-3,2.5021188E-2,1.2390694E-2,7.434694E-2,6.093937E-2,-3.8754423E-3,1.5644811E-2,9.326006E-2,4.11611E-3,1.21237695E-1,9.7022325E-2,3.2199442E-2,1.3520705E-3,4.1330243E-3,1.2547628E-4,-2.0539669E-4,3.5847507E-3,4.030113E-4,4.619851E-3,6.5557903E-4,1.2412899E-3,-5.7031756E-4,1.9791748E-2,2.6509368E-3,2.2406673E-2,2.5153186E-3,-9.029762E-3,1.3323867E-3],"categories":[],"categories_nodes":[],"categories_segments":[],"categories_sizes":[],"default_left":[0,0,0,0,0,0,0,0,0,0,0,0,0,0,0,0,0,0,0,0,0,0,0,0,0,0,0,0,0,0,0],"id":15,"left_children":[1,3,5,7,9,11,13,15,17,19,21,23,25,27,29,-1,-1,-1,-1,-1,-1,-1,-1,-1,-1,-1,-1,-1,-1,-1,-1],"loss_changes":[3.8276997E1,1.2544595E1,2.1379086E1,1.2227936E1,1.0318649E1,1.1268445E1,9.575165E0,3.53477E0,9.584127E0,3.2465637E0,8.427053E0,1.0037029E1,1.531947E1,5.553523E1,1.4382431E1,0E0,0E0,0E0,0E0,0E0,0E0,0E0,0E0,0E0,0E0,0E0,0E0,0E0,0E0,0E0,0E0],"parents":[2147483647,0,0,1,1,2,2,3,3,4,4,5,5,6,6,7,7,8,8,9,9,10,10,11,11,12,12,13,13,14,14],"right_children":[2,4,6,8,10,12,14,16,18,20,22,24,26,28,30,-1,-1,-1,-1,-1,-1,-1,-1,-1,-1,-1,-1,-1,-1,-1,-1],"split_conditions":[5.432207E-1,1E0,7.267583E-2,-4.7701716E-1,4.6389285E-1,1E0,1.2578683E1,1E0,-3.6815414E-1,-8.432912E-1,1.21600196E-1,1.2027606E1,-1.1615565E0,-6.787772E-1,-6.787772E-1,1.3520705E-3,4.1330243E-3,1.2547628E-4,-2.0539669E-4,3.5847507E-3,4.030113E-4,4.619851E-3,6.5557903E-4,1.2412899E-3,-5.7031756E-4,1.9791748E-2,2.6509368E-3,2.2406673E-2,2.5153186E-3,-9.029762E-3,1.3323867E-3],"split_indices":[6,12,2,8,6,12,7,10,3,4,2,7,4,8,8,0,0,0,0,0,0,0,0,0,0,0,0,0,0,0,0],"split_type":[0,0,0,0,0,0,0,0,0,0,0,0,0,0,0,0,0,0,0,0,0,0,0,0,0,0,0,0,0,0,0],"sum_hessian":[4.41925E5,4.19372E5,2.2553E4,4.0323E5,1.6142E4,1.2516E4,1.0037E4,2.927E3,4.00303E5,1.4198E4,1.944E3,1.1637E4,8.79E2,6.521E3,3.516E3,2.433E3,4.94E2,1.07832E5,2.92471E5,2.9E2,1.3908E4,1.047E3,8.97E2,4.456E3,7.181E3,4.5E1,8.34E2,1.24E2,6.397E3,1.2E2,3.396E3],"tree_param":{"num_deleted":"0","num_feature":"20","num_nodes":"31","size_leaf_vector":"1"}},{"base_weights":[1.0223592E-4,-1.9803988E-3,3.8999647E-2,-3.0468605E-3,2.4695663E-2,1.2881181E-2,6.8457186E-2,5.7168443E-2,-3.490924E-3,1.5958536E-2,9.1677845E-2,5.400429E-3,1.1595486E-1,7.604902E-2,-3.2475304E-2,1.3063739E-3,3.6927902E-3,-4.9565297E-5,-4.990458E-4,1.5215294E-3,2.885556E-4,4.518114E-3,6.753455E-4,1.3659636E-3,-4.7769828E-4,1.8695215E-2,2.4740398E-3,3.2312414E-3,8.7203033E-4,-3.177847E-3,4.857508E-3],"categories":[],"categories_nodes":[],"categories_segments":[],"categories_sizes":[],"default_left":[0,0,0,0,0,0,0,0,0,0,0,0,0,0,0,0,0,0,0,0,0,0,0,0,0,0,0,0,0,0,0],"id":16,"left_children":[1,3,5,7,9,11,13,15,17,19,21,23,25,27,29,-1,-1,-1,-1,-1,-1,-1,-1,-1,-1,-1,-1,-1,-1,-1,-1],"loss_changes":[3.5787197E1,1.1927788E1,1.7265E1,1.0779161E1,9.419483E0,9.171916E0,8.097832E0,2.6150627E0,9.672004E0,3.1379488E0,7.5470266E0,9.509992E0,1.3380822E1,1.45732E1,1.066346E1,0E0,0E0,0E0,0E0,0E0,0E0,0E0,0E0,0E0,0E0,0E0,0E0,0E0,0E0,0E0,0E0],"parents":[2147483647,0,0,1,1,2,2,3,3,4,4,5,5,6,6,7,7,8,8,9,9,10,10,11,11,12,12,13,13,14,14],"right_children":[2,4,6,8,10,12,14,16,18,20,22,24,26,28,30,-1,-1,-1,-1,-1,-1,-1,-1,-1,-1,-1,-1,-1,-1,-1,-1],"split_conditions":[5.432207E-1,1E0,4.8859935E-2,-4.7701716E-1,4.6389285E-1,1E0,1E0,1E0,1E0,1.1335123E1,6.037157E-1,1.1956094E1,-1.1615565E0,1.2461257E1,1.2406387E1,1.3063739E-3,3.6927902E-3,-4.9565297E-5,-4.990458E-4,1.5215294E-3,2.885556E-4,4.518114E-3,6.753455E-4,1.3659636E-3,-4.7769828E-4,1.8695215E-2,2.4740398E-3,3.2312414E-3,8.7203033E-4,-3.177847E-3,4.857508E-3],"split_indices":[6,12,2,8,6,12,14,10,14,7,4,7,4,7,7,0,0,0,0,0,0,0,0,0,0,0,0,0,0,0,0],"split_type":[0,0,0,0,0,0,0,0,0,0,0,0,0,0,0,0,0,0,0,0,0,0,0,0,0,0,0,0,0,0,0],"sum_hessian":[4.41735E5,4.19289E5,2.2446E4,4.03177E5,1.6112E4,1.1902E4,1.0544E4,2.946E3,4.00231E5,1.4259E4,1.853E3,1.1102E4,8E2,9.808E3,7.36E2,2.449E3,4.97E2,3.51121E5,4.911E4,2.193E3,1.2066E4,9.97E2,8.56E2,3.851E3,7.251E3,4.4E1,7.56E2,5.855E3,3.953E3,5.36E2,2E2],"tree_param":{"num_deleted":"0","num_feature":"20","num_nodes":"31","size_leaf_vector":"1"}},{"base_weights":[1.8910726E-4,-1.9680741E-3,4.047873E-2,-4.2295335E-3,1.0647262E-2,1.4373037E-2,7.252875E-2,7.1227094E-3,-7.0403805E-3,-4.3621426E-3,3.39661E-2,4.405849E-2,-3.2675744E-3,2.705841E-1,6.763607E-2,6.575716E-4,2.6977625E-5,-2.7115762E-4,2.575353E-4,3.094794E-4,-6.055795E-4,8.371906E-4,2.2614626E-3,8.376178E-3,9.907648E-4,-4.448333E-4,1.3786177E-3,2.8913701E-2,-4.5599835E-3,2.2595492E-3,-1.099735E-3],"categories":[],"categories_nodes":[],"categories_segments":[],"categories_sizes":[],"default_left":[0,0,0,0,0,0,0,0,0,0,0,0,0,0,0,0,0,0,0,0,0,0,0,0,0,0,0,0,0,0,0],"id":17,"left_children":[1,3,5,7,9,11,13,15,17,19,21,23,25,27,29,-1,-1,-1,-1,-1,-1,-1,-1,-1,-1,-1,-1,-1,-1,-1,-1],"loss_changes":[3.8394836E1,1.1961973E1,1.877493E1,1.1346055E1,2.2309944E1,6.4857883E0,9.655449E0,6.4966955E0,8.898712E0,9.008743E0,6.248789E0,1.1913943E1,4.4224935E0,7.1370995E1,7.8996544E0,0E0,0E0,0E0,0E0,0E0,0E0,0E0,0E0,0E0,0E0,0E0,0E0,0E0,0E0,0E0,0E0],"parents":[2147483647,0,0,1,1,2,2,3,3,4,4,5,5,6,6,7,7,8,8,9,9,10,10,11,11,12,12,13,13,14,14],"right_children":[2,4,6,8,10,12,14,16,18,20,22,24,26,28,30,-1,-1,-1,-1,-1,-1,-1,-1,-1,-1,-1,-1,-1,-1,-1,-1],"split_conditions":[5.432207E-1,3.778364E-1,7.267583E-2,-2.1600622E-1,-1.3033108E-1,1.2014952E1,-6.787772E-1,2.3374252E-1,1E0,-2.4215741E-2,1E0,-6.787772E-1,-2.539568E-1,1.2442924E1,1E0,6.575716E-4,2.6977625E-5,-2.7115762E-4,2.575353E-4,3.094794E-4,-6.055795E-4,8.371906E-4,2.2614626E-3,8.376178E-3,9.907648E-4,-4.448333E-4,1.3786177E-3,2.8913701E-2,-4.5599835E-3,2.2595492E-3,-1.099735E-3],"split_indices":[6,6,2,4,8,7,8,6,16,1,15,8,8,7,14,0,0,0,0,0,0,0,0,0,0,0,0,0,0,0,0],"split_type":[0,0,0,0,0,0,0,0,0,0,0,0,0,0,0,0,0,0,0,0,0,0,0,0,0,0,0,0,0,0,0],"sum_hessian":[4.41735E5,4.19289E5,2.2446E4,3.55558E5,6.3731E4,1.2375E4,1.0071E4,7.056E4,2.84998E5,3.8775E4,2.4956E4,4.611E3,7.764E3,2.36E2,9.835E3,2.0885E4,4.9675E4,2.52688E5,3.231E4,2.0115E4,1.866E4,2.1779E4,3.177E3,2.01E2,4.41E3,6.291E3,1.473E3,8.7E1,1.49E2,9.162E3,6.73E2],"tree_param":{"num_deleted":"0","num_feature":"20","num_nodes":"31","size_leaf_vector":"1"}},{"base_weights":[-8.302876E-5,-4.048071E-3,1.6670251E-2,2.3113354E-3,-8.649751E-3,4.4863275E-3,4.568948E-2,1.1211362E-2,-1.8501526E-3,-1.0913575E-2,2.4405883E-3,-1.8110342E-3,9.382955E-2,2.8041923E-2,6.518859E-2,8.3389995E-4,1.3052866E-4,-1.1604721E-4,4.5930367E-4,-4.0510323E-4,1.5092523E-4,2.3540955E-4,-4.167531E-4,4.7300837E-4,-4.149443E-4,1.763276E-2,2.6391968E-3,6.3791766E-4,2.0506287E-3,1.7613387E-3,3.962309E-3],"categories":[],"categories_nodes":[],"categories_segments":[],"categories_sizes":[],"default_left":[0,0,0,0,0,0,0,0,0,0,0,0,0,0,0,0,0,0,0,0,0,0,0,0,0,0,0,0,0,0,0],"id":18,"left_children":[1,3,5,7,9,11,13,15,17,19,21,23,25,27,29,-1,-1,-1,-1,-1,-1,-1,-1,-1,-1,-1,-1,-1,-1,-1,-1],"loss_changes":[2.9362768E1,1.0460613E1,2.99062E1,5.558434E0,5.2073364E0,3.353012E1,8.593468E0,5.4382696E0,3.5407722E0,7.113018E0,3.104578E0,1.1763159E1,1.1058273E1,3.5785885E0,5.0979004E0,0E0,0E0,0E0,0E0,0E0,0E0,0E0,0E0,0E0,0E0,0E0,0E0,0E0,0E0,0E0,0E0],"parents":[2147483647,0,0,1,1,2,2,3,3,4,4,5,5,6,6,7,7,8,8,9,9,10,10,11,11,12,12,13,13,14,14],"right_children":[2,4,6,8,10,12,14,16,18,20,22,24,26,28,30,-1,-1,-1,-1,-1,-1,-1,-1,-1,-1,-1,-1,-1,-1,-1,-1],"split_conditions":[3.8010618E-1,-1.9047619E-3,-9.582773E-2,-2.6100075E-1,1E0,1E0,4.539398E-1,2.3287567E-1,1E0,1E0,1.1879873E1,-5.8738613E-1,-1.4381413E0,1E0,1E0,8.3389995E-4,1.3052866E-4,-1.1604721E-4,4.5930367E-4,-4.0510323E-4,1.5092523E-4,2.3540955E-4,-4.167531E-4,4.7300837E-4,-4.149443E-4,1.763276E-2,2.6391968E-3,6.3791766E-4,2.0506287E-3,1.7613387E-3,3.962309E-3],"split_indices":[6,1,8,4,13,12,6,6,16,16,7,3,4,13,15,0,0,0,0,0,0,0,0,0,0,0,0,0,0,0,0],"split_type":[0,0,0,0,0,0,0,0,0,0,0,0,0,0,0,0,0,0,0,0,0,0,0,0,0,0,0,0,0,0,0],"sum_hessian":[4.42027E5,3.57438E5,8.4589E4,1.50056E5,2.07382E5,5.9581E4,2.5008E4,4.781E4,1.02246E5,1.7223E5,3.5152E4,5.5662E4,3.919E3,1.3135E4,1.1873E4,1.3983E4,3.3827E4,9.1493E4,1.0753E4,1.48167E5,2.4063E4,2.6414E4,8.738E3,2.2603E4,3.3059E4,4E1,3.879E3,1.1252E4,1.883E3,1.0834E4,1.039E3],"tree_param":{"num_deleted":"0","num_feature":"20","num_nodes":"31","size_leaf_vector":"1"}},{"base_weights":[-5.465372E-5,-2.0096493E-3,3.6365807E-2,9.65969E-3,-4.249051E-3,1.2767368E-2,6.568556E-2,8.2532475E-3,3.9045762E-2,-5.1693125E-3,1.9717546E-2,5.363236E-3,1.1123405E-1,2.476615E-1,6.1038528E-2,1.6052916E-3,2.2015262E-4,7.646508E-4,3.2257696E-3,1.7079884E-3,-1.6419771E-4,3.9179708E-4,2.41284E-3,1.2434536E-3,-5.077459E-4,1.7537288E-2,2.401585E-3,2.8090375E-2,-5.0087646E-3,2.04114E-3,-9.824043E-4],"categories":[],"categories_nodes":[],"categories_segments":[],"categories_sizes":[],"default_left":[0,0,0,0,0,0,0,0,0,0,0,0,0,0,0,0,0,0,0,0,0,0,0,0,0,0,0,0,0,0,0],"id":19,"left_children":[1,3,5,7,9,11,13,15,17,19,21,23,25,27,29,-1,-1,-1,-1,-1,-1,-1,-1,-1,-1,-1,-1,-1,-1,-1,-1],"loss_changes":[3.1461246E1,1.095916E1,1.5566566E1,2.7866125E0,7.7602186E0,9.089129E0,8.39592E0,2.663094E0,2.840075E0,6.395076E0,5.2485666E0,9.343929E0,1.2602964E1,7.1634674E1,6.441498E0,0E0,0E0,0E0,0E0,0E0,0E0,0E0,0E0,0E0,0E0,0E0,0E0,0E0,0E0,0E0,0E0],"parents":[2147483647,0,0,1,1,2,2,3,3,4,4,5,5,6,6,7,7,8,8,9,9,10,10,11,11,12,12,13,13,14,14],"right_children":[2,4,6,8,10,12,14,16,18,20,22,24,26,28,30,-1,-1,-1,-1,-1,-1,-1,-1,-1,-1,-1,-1,-1,-1,-1,-1],"split_conditions":[5.432207E-1,-3.1841394E-2,7.267583E-2,1E0,1E0,1E0,-6.787772E-1,-4.7701716E-1,4.6389285E-1,-4.7701716E-1,4.6927708E-1,1.2027606E1,-1.1615565E0,1.2442924E1,1E0,1.6052916E-3,2.2015262E-4,7.646508E-4,3.2257696E-3,1.7079884E-3,-1.6419771E-4,3.9179708E-4,2.41284E-3,1.2434536E-3,-5.077459E-4,1.7537288E-2,2.401585E-3,2.8090375E-2,-5.0087646E-3,2.04114E-3,-9.824043E-4],"split_indices":[6,0,2,12,12,12,8,8,6,8,6,7,4,7,14,0,0,0,0,0,0,0,0,0,0,0,0,0,0,0,0],"split_type":[0,0,0,0,0,0,0,0,0,0,0,0,0,0,0,0,0,0,0,0,0,0,0,0,0,0,0,0,0,0,0],"sum_hessian":[4.41874E5,4.19369E5,2.2505E4,6.7515E4,3.51854E5,1.2474E4,1.0031E4,6.4439E4,3.076E3,3.38849E5,1.3005E4,1.1607E4,8.67E2,2.43E2,9.788E3,1.27E3,6.3169E4,2.574E3,5.02E2,1.645E3,3.37204E5,1.1726E4,1.279E3,4.431E3,7.176E3,4.8E1,8.19E2,8.9E1,1.54E2,9.11E3,6.78E2],"tree_param":{"num_deleted":"0","num_feature":"20","num_nodes":"31","size_leaf_vector":"1"}},{"base_weights":[3.05334E-5,-1.4073461E-3,3.242223E-2,1.3043388E-2,-3.4472272E-3,2.3610957E-2,1.3384242E-1,9.279658E-2,1.1882603E-2,-4.774228E-3,1.7213516E-2,1.8853052E-1,2.111507E-2,1.5598706E-2,1.23087354E-1,1.56127345E-2,2.8699738E-4,4.2602388E-4,-1.4023435E-4,-9.7425705E-5,-6.489593E-4,1.1842951E-2,4.4958343E-4,2.863573E-4,6.8750875E-3,2.9313835E-4,1.3137374E-3,1.9371159E-3,6.3277665E-3],"categories":[],"categories_nodes":[],"categories_segments":[],"categories_sizes":[],"default_left":[0,0,0,0,0,0,0,0,0,0,0,0,0,0,0,0,0,0,0,0,0,0,0,0,0,0,0,0,0],"id":20,"left_children":[1,3,5,7,9,11,13,15,17,19,21,23,25,-1,27,-1,-1,-1,-1,-1,-1,-1,-1,-1,-1,-1,-1,-1,-1],"loss_changes":[2.0597633E1,1.248102E1,1.6774092E1,4.83784E0,1.0172636E1,7.0910625E0,5.881027E0,2.6642212E1,1.9824586E0,8.97172E0,1.8780684E1,1.8464918E0,4.380762E0,0E0,7.458523E0,0E0,0E0,0E0,0E0,0E0,0E0,0E0,0E0,0E0,0E0,0E0,0E0,0E0,0E0],"parents":[2147483647,0,0,1,1,2,2,3,3,4,4,5,5,6,6,7,7,8,8,9,9,10,10,11,11,12,12,14,14],"right_children":[2,4,6,8,10,12,14,16,18,20,22,24,26,-1,28,-1,-1,-1,-1,-1,-1,-1,-1,-1,-1,-1,-1,-1,-1],"split_conditions":[1E0,-4.0035587E-2,5.989535E-1,-6.787772E-1,1.0699338E0,-9.642438E-1,-1.1615565E0,1.2066456E1,1E0,1E0,-6.787772E-1,1.1766878E1,3.6902225E-1,1.5598706E-2,1.6754161E-1,1.56127345E-2,2.8699738E-4,4.2602388E-4,-1.4023435E-4,-9.7425705E-5,-6.489593E-4,1.1842951E-2,4.4958343E-4,2.863573E-4,6.8750875E-3,2.9313835E-4,1.3137374E-3,1.9371159E-3,6.3277665E-3],"split_indices":[12,0,5,8,4,4,4,7,14,11,8,7,5,0,1,0,0,0,0,0,0,0,0,0,0,0,0,0,0],"split_type":[0,0,0,0,0,0,0,0,0,0,0,0,0,0,0,0,0,0,0,0,0,0,0,0,0,0,0,0,0],"sum_hessian":[4.422E5,4.23408E5,1.8792E4,5.2369E4,3.71039E5,1.7296E4,1.496E3,7.45E2,5.1624E4,3.48652E5,2.2387E4,2.52E2,1.7044E4,3.4E1,1.462E3,1.17E2,6.28E2,4.5287E4,6.337E3,3.19707E5,2.8945E4,1.26E2,2.2261E4,4.8E1,2.04E2,1.1367E4,5.677E3,8.83E2,5.79E2],"tree_param":{"num_deleted":"0","num_feature":"20","num_nodes":"29","size_leaf_vector":"1"}},{"base_weights":[-5.1308172E-5,-1.969637E-3,3.590857E-2,-5.5223855E-4,-1.9543445E-2,7.310201E-3,6.304904E-2,1.5610171E-3,-1.4967912E-2,-5.7007693E-2,-1.780143E-2,-8.265304E-5,1.1710504E-1,8.3039865E-2,2.4798201E-2,-1.9906725E-5,3.8577587E-4,6.705454E-6,-5.672365E-4,3.5128333E-3,-1.9117029E-3,6.3857605E-4,-5.72457E-4,-1.005153E-4,7.3108585E-3,1.7469974E-2,2.374734E-3,1.8891597E-2,2.1177798E-3,-7.06808E-3,1.055843E-3],"categories":[],"categories_nodes":[],"categories_segments":[],"categories_sizes":[],"default_left":[0,0,0,0,0,0,0,0,0,0,0,0,0,0,0,0,0,0,0,0,0,0,0,0,0,0,0,0,0,0,0],"id":21,"left_children":[1,3,5,7,9,11,13,15,17,19,21,23,25,27,29,-1,-1,-1,-1,-1,-1,-1,-1,-1,-1,-1,-1,-1,-1,-1,-1],"loss_changes":[3.047018E1,1.044484E1,1.7357172E1,1.1822953E1,2.0336637E0,8.852587E0,8.759617E0,8.507284E0,2.9708414E0,1.656354E0,1.4991207E0,8.130453E0,1.1882464E1,5.1008842E1,1.071705E1,0E0,0E0,0E0,0E0,0E0,0E0,0E0,0E0,0E0,0E0,0E0,0E0,0E0,0E0,0E0,0E0],"parents":[2147483647,0,0,1,1,2,2,3,3,4,4,5,5,6,6,7,7,8,8,9,9,10,10,11,11,12,12,13,13,14,14],"right_children":[2,4,6,8,10,12,14,16,18,20,22,24,26,28,30,-1,-1,-1,-1,-1,-1,-1,-1,-1,-1,-1,-1,-1,-1,-1,-1],"split_conditions":[5.432207E-1,1E0,7.752945E-3,1E0,-3.046581E-1,1E0,1.2578683E1,3.8010618E-1,-6.428615E-1,-5.3069055E-1,1.0187327E1,1E0,-1.1615565E0,-6.787772E-1,-6.787772E-1,-1.9906725E-5,3.8577587E-4,6.705454E-6,-5.672365E-4,3.5128333E-3,-1.9117029E-3,6.3857605E-4,-5.72457E-4,-1.005153E-4,7.3108585E-3,1.7469974E-2,2.374734E-3,1.8891597E-2,2.1177798E-3,-7.06808E-3,1.055843E-3],"split_indices":[6,11,2,14,8,12,7,6,3,8,7,19,4,8,8,0,0,0,0,0,0,0,0,0,0,0,0,0,0,0,0],"split_type":[0,0,0,0,0,0,0,0,0,0,0,0,0,0,0,0,0,0,0,0,0,0,0,0,0,0,0,0,0,0,0],"sum_hessian":[4.41721E5,4.19356E5,2.2365E4,3.88065E5,3.1291E4,1.0894E4,1.1471E4,3.38451E5,4.9614E4,1.382E3,2.9909E4,1.0211E4,6.83E2,7.529E3,3.942E3,2.82774E5,5.5677E4,1.0216E4,3.9398E4,4.8E1,1.334E3,9.45E2,2.8964E4,1.0081E4,1.3E2,4.6E1,6.37E2,1.62E2,7.367E3,1.47E2,3.795E3],"tree_param":{"num_deleted":"0","num_feature":"20","num_nodes":"31","size_leaf_vector":"1"}},{"base_weights":[-1.1164728E-4,-1.8753099E-3,3.29615E-2,-4.6296132E-4,-1.9356003E-2,9.344766E-3,6.2152244E-2,5.745305E-2,-8.79627E-4,-5.7020653E-2,-1.762161E-2,2.2022335E-3,1.048924E-1,8.093214E-2,2.7098535E-2,1.2580046E-3,3.8921253E-3,-5.546941E-5,6.3790387E-4,-9.793745E-4,-3.2584805E-3,6.9362466E-4,-5.6945946E-4,-2.548781E-5,6.7447415E-3,1.497169E-2,2.400171E-3,2.077587E-2,2.0786151E-3,-7.9122605E-3,1.1404258E-3],"categories":[],"categories_nodes":[],"categories_segments":[],"categories_sizes":[],"default_left":[0,0,0,0,0,0,0,0,0,0,0,0,0,0,0,0,0,0,0,0,0,0,0,0,0,0,0,0,0,0,0],"id":22,"left_children":[1,3,5,7,9,11,13,15,17,19,21,23,25,27,29,-1,-1,-1,-1,-1,-1,-1,-1,-1,-1,-1,-1,-1,-1,-1,-1],"loss_changes":[2.5775135E1,1.0356942E1,1.5415863E1,9.364979E0,2.0398464E0,8.4374695E0,6.568657E0,3.0739088E0,8.272043E0,1.7069616E0,1.6640682E0,7.837545E0,8.207528E0,4.6086357E1,1.1143999E1,0E0,0E0,0E0,0E0,0E0,0E0,0E0,0E0,0E0,0E0,0E0,0E0,0E0,0E0,0E0,0E0],"parents":[2147483647,0,0,1,1,2,2,3,3,4,4,5,5,6,6,7,7,8,8,9,9,10,10,11,11,12,12,13,13,14,14],"right_children":[2,4,6,8,10,12,14,16,18,20,22,24,26,28,30,-1,-1,-1,-1,-1,-1,-1,-1,-1,-1,-1,-1,-1,-1,-1,-1],"split_conditions":[5.432207E-1,1E0,7.267583E-2,-4.7701716E-1,-3.046581E-1,1E0,1.2578683E1,1E0,1E0,3.8233033E-1,1.0187327E1,1E0,-1.0830909E0,-6.787772E-1,-6.787772E-1,1.2580046E-3,3.8921253E-3,-5.546941E-5,6.3790387E-4,-9.793745E-4,-3.2584805E-3,6.9362466E-4,-5.6945946E-4,-2.548781E-5,6.7447415E-3,1.497169E-2,2.400171E-3,2.077587E-2,2.0786151E-3,-7.9122605E-3,1.1404258E-3],"split_indices":[6,11,2,8,8,12,7,10,12,6,7,19,4,8,8,0,0,0,0,0,0,0,0,0,0,0,0,0,0,0,0],"split_type":[0,0,0,0,0,0,0,0,0,0,0,0,0,0,0,0,0,0,0,0,0,0,0,0,0,0,0,0,0,0,0],"sum_hessian":[4.41902E5,4.19536E5,2.2366E4,3.88181E5,3.1355E4,1.2368E4,9.998E3,2.767E3,3.85414E5,1.372E3,2.9983E4,1.1513E4,8.55E2,6.505E3,3.493E3,2.285E3,4.82E2,3.69256E5,1.6158E4,9.38E2,4.34E2,9.65E2,2.9018E4,1.1362E4,1.51E2,4.5E1,8.1E2,1.16E2,6.389E3,1.22E2,3.371E3],"tree_param":{"num_deleted":"0","num_feature":"20","num_nodes":"31","size_leaf_vector":"1"}},{"base_weights":[1.7720515E-4,-1.6632297E-3,3.4658708E-2,9.213381E-3,-3.7404597E-3,1.0687081E-2,6.286975E-2,5.092923E-2,8.406214E-3,-2.080019E-3,-1.6187966E-2,7.773365E-3,2.2940822E-1,8.3471335E-2,2.3997176E-2,1.9663281E-3,-5.183461E-6,3.1711842E-4,-2.232969E-4,-1.1880963E-5,-5.7904486E-4,-3.9982682E-4,-9.792821E-4,8.786136E-4,-4.709809E-4,3.5435264E-3,1.7755717E-2,1.9447222E-2,2.1526192E-3,-6.9726123E-3,1.0162027E-3],"categories":[],"categories_nodes":[],"categories_segments":[],"categories_sizes":[],"default_left":[0,0,0,0,0,0,0,0,0,0,0,0,0,0,0,0,0,0,0,0,0,0,0,0,0,0,0,0,0,0,0],"id":23,"left_children":[1,3,5,7,9,11,13,15,17,19,21,23,25,27,29,-1,-1,-1,-1,-1,-1,-1,-1,-1,-1,-1,-1,-1,-1,-1,-1],"loss_changes":[2.807326E1,9.487472E0,1.5151434E1,2.262207E0,7.2865562E0,7.7063828E0,8.229221E0,9.563155E-1,2.2668781E0,9.021369E0,1.9485836E0,6.048172E0,6.028572E0,4.424146E1,9.080391E0,0E0,0E0,0E0,0E0,0E0,0E0,0E0,0E0,0E0,0E0,0E0,0E0,0E0,0E0,0E0,0E0],"parents":[2147483647,0,0,1,1,2,2,3,3,4,4,5,5,6,6,7,7,8,8,9,9,10,10,11,11,12,12,13,13,14,14],"right_children":[2,4,6,8,10,12,14,16,18,20,22,24,26,28,30,-1,-1,-1,-1,-1,-1,-1,-1,-1,-1,-1,-1,-1,-1,-1,-1],"split_conditions":[5.432207E-1,-3.1841394E-2,5.9227973E-2,-4.7701716E-1,1E0,1E0,1.2578683E1,4.9986574E-1,1E0,1E0,3.4802756E-1,-1.9189438E-3,6.4035445E-1,-6.787772E-1,-6.787772E-1,1.9663281E-3,-5.183461E-6,3.1711842E-4,-2.232969E-4,-1.1880963E-5,-5.7904486E-4,-3.9982682E-4,-9.792821E-4,8.786136E-4,-4.709809E-4,3.5435264E-3,1.7755717E-2,1.9447222E-2,2.1526192E-3,-6.9726123E-3,1.0162027E-3],"split_indices":[6,0,2,8,14,19,7,6,14,11,6,0,6,8,8,0,0,0,0,0,0,0,0,0,0,0,0,0,0,0,0],"split_type":[0,0,0,0,0,0,0,0,0,0,0,0,0,0,0,0,0,0,0,0,0,0,0,0,0,0,0,0,0,0,0],"sum_hessian":[4.42335E5,4.19925E5,2.241E4,6.7331E4,3.52594E5,1.212E4,1.029E4,1.271E3,6.606E4,3.11104E5,4.149E4,1.1966E4,1.54E2,6.721E3,3.569E3,9.88E2,2.83E2,5.8127E4,7.933E3,2.834E5,2.7704E4,3.5356E4,6.134E3,6.244E3,5.722E3,1.23E2,3.1E1,1.31E2,6.59E3,1.28E2,3.441E3],"tree_param":{"num_deleted":"0","num_feature":"20","num_nodes":"31","size_leaf_vector":"1"}},{"base_weights":[5.0753828E-5,-3.3867166E-3,1.4522924E-2,7.1357284E-3,-5.9976317E-3,2.9964135E-3,4.2070556E-2,4.686838E-2,4.976503E-3,-7.876051E-3,8.537955E-3,-2.6771142E-3,8.387876E-2,2.714492E-2,5.856187E-2,1.1199099E-3,3.801518E-3,6.517459E-4,-7.34695E-5,-3.1244708E-4,8.807842E-5,2.186899E-4,1.6233071E-3,2.0862716E-4,-6.302045E-4,1.5499948E-2,2.3555825E-3,6.185692E-4,1.9958906E-3,6.220654E-3,1.6636881E-3],"categories":[],"categories_nodes":[],"categories_segments":[],"categories_sizes":[],"default_left":[0,0,0,0,0,0,0,0,0,0,0,0,0,0,0,0,0,0,0,0,0,0,0,0,0,0,0,0,0,0,0],"id":24,"left_children":[1,3,5,7,9,11,13,15,17,19,21,23,25,27,29,-1,-1,-1,-1,-1,-1,-1,-1,-1,-1,-1,-1,-1,-1,-1,-1],"loss_changes":[2.2007772E1,9.820923E0,2.6958426E1,6.09286E0,7.8203907E0,2.7478365E1,6.152672E0,2.7563725E0,8.384283E0,6.962908E0,1.8595018E0,9.878661E0,8.871246E0,3.3706913E0,5.4250298E0,0E0,0E0,0E0,0E0,0E0,0E0,0E0,0E0,0E0,0E0,0E0,0E0,0E0,0E0,0E0,0E0],"parents":[2147483647,0,0,1,1,2,2,3,3,4,4,5,5,6,6,7,7,8,8,9,9,10,10,11,11,12,12,13,13,14,14],"right_children":[2,4,6,8,10,12,14,16,18,20,22,24,26,28,30,-1,-1,-1,-1,-1,-1,-1,-1,-1,-1,-1,-1,-1,-1,-1,-1],"split_conditions":[3.8010618E-1,-2.1600622E-1,-9.582773E-2,-3.6669996E-1,1E0,1E0,4.539398E-1,1E0,2.3374252E-1,1E0,1.397765E0,2.3819387E-2,-1.4381413E0,1E0,9.016901E0,1.1199099E-3,3.801518E-3,6.517459E-4,-7.34695E-5,-3.1244708E-4,8.807842E-5,2.186899E-4,1.6233071E-3,2.0862716E-4,-6.302045E-4,1.5499948E-2,2.3555825E-3,6.185692E-4,1.9958906E-3,6.220654E-3,1.6636881E-3],"split_indices":[6,4,8,8,16,12,6,13,6,13,4,1,4,13,7,0,0,0,0,0,0,0,0,0,0,0,0,0,0,0,0],"split_type":[0,0,0,0,0,0,0,0,0,0,0,0,0,0,0,0,0,0,0,0,0,0,0,0,0,0,0,0,0,0,0],"sum_hessian":[4.42367E5,3.57462E5,8.4905E4,7.1058E4,2.86404E5,5.9864E4,2.5041E4,3.656E3,6.7402E4,2.53633E5,3.2771E4,5.5944E4,3.92E3,1.3153E4,1.1888E4,3.273E3,3.83E2,2.0703E4,4.6699E4,2.05405E5,4.8228E4,3.1904E4,8.67E2,3.6674E4,1.927E4,4.2E1,3.878E3,1.1291E4,1.862E3,2.36E2,1.1652E4],"tree_param":{"num_deleted":"0","num_feature":"20","num_nodes":"31","size_leaf_vector":"1"}},{"base_weights":[7.0875205E-5,-4.132802E-3,9.30229E-3,-6.1671003E-3,1.3387137E-2,6.194702E-3,5.007535E-2,-8.56589E-3,4.784772E-3,2.9043017E-2,6.4653307E-3,3.2040465E-3,2.4427738E-2,4.135167E-2,1.841444E-1,2.5917235E-4,-3.1280905E-4,5.3775E-4,-4.845514E-5,1.3874403E-3,7.2039315E-4,1.0599145E-4,1.1083246E-3,2.1574959E-5,8.152195E-4,2.0082998E-3,5.236813E-4,6.078375E-3,1.0995321E-3,-3.214079E-5,7.602233E-3],"categories":[],"categories_nodes":[],"categories_segments":[],"categories_sizes":[],"default_left":[0,0,0,0,0,0,0,0,0,0,0,0,0,0,0,0,0,0,0,0,0,0,0,0,0,0,0,0,0,0,0],"id":25,"left_children":[1,3,5,7,9,11,13,15,17,19,21,23,25,27,29,-1,-1,-1,-1,-1,-1,-1,-1,-1,-1,-1,-1,-1,-1,-1,-1],"loss_changes":[1.713942E1,1.0815924E1,1.7505753E1,7.143648E0,3.4184308E0,7.0005336E0,1.1394947E1,7.1427155E0,4.1094217E0,8.282051E-1,1.9545817E0,6.569913E0,5.3525085E0,6.9201612E0,7.6598606E0,0E0,0E0,0E0,0E0,0E0,0E0,0E0,0E0,0E0,0E0,0E0,0E0,0E0,0E0,0E0,0E0],"parents":[2147483647,0,0,1,1,2,2,3,3,4,4,5,5,6,6,7,7,8,8,9,9,10,10,11,11,12,12,13,13,14,14],"right_children":[2,4,6,8,10,12,14,16,18,20,22,24,26,28,30,-1,-1,-1,-1,-1,-1,-1,-1,-1,-1,-1,-1,-1,-1,-1,-1],"split_conditions":[3.1742835E-1,1E0,1E0,1E0,-1.4984117E-1,1E0,7.070087E-1,1.0211824E1,8.223575E-2,-3.3655703E-1,1.0938168E0,1.1778772E0,1.0484672E1,-9.642438E-1,3.9776195E-2,2.5917235E-4,-3.1280905E-4,5.3775E-4,-4.845514E-5,1.3874403E-3,7.2039315E-4,1.0599145E-4,1.1083246E-3,2.1574959E-5,8.152195E-4,2.0082998E-3,5.236813E-4,6.078375E-3,1.0995321E-3,-3.214079E-5,7.602233E-3],"split_indices":[5,16,12,13,3,15,5,7,4,4,4,4,7,4,1,0,0,0,0,0,0,0,0,0,0,0,0,0,0,0,0],"split_type":[0,0,0,0,0,0,0,0,0,0,0,0,0,0,0,0,0,0,0,0,0,0,0,0,0,0,0,0,0,0,0],"sum_hessian":[4.41654E5,3.03464E5,1.3819E5,2.71899E5,3.1565E4,1.2841E5,9.78E3,2.2305E5,4.8849E4,9.67E3,2.1895E4,1.10323E5,1.8087E4,9.189E3,5.91E2,2.1768E4,2.01282E5,1.5999E4,3.285E4,2.176E3,7.494E3,1.998E4,1.915E3,9.9967E4,1.0356E4,2.541E3,1.5546E4,2.54E2,8.935E3,1.62E2,4.29E2],"tree_param":{"num_deleted":"0","num_feature":"20","num_nodes":"31","size_leaf_vector":"1"}},{"base_weights":[-4.5434294E-6,-3.3571206E-3,1.415864E-2,2.3820836E-3,-8.042321E-3,9.864041E-3,5.9241652E-2,4.7862894E-4,1.9196104E-2,-1.0077265E-2,1.8849242E-3,-1.6316567E-3,2.9648025E-2,4.9337976E-2,1.7115721E-1,1.9282936E-4,-1.3180816E-4,8.6376525E-4,1.7853401E-4,-3.6805173E-4,9.6956515E-5,2.0938882E-4,-4.466104E-4,-1.5230842E-4,9.388137E-4,6.580154E-4,2.0115867E-3,1.4727466E-2,1.4001402E-3,9.590693E-4,8.175319E-3],"categories":[],"categories_nodes":[],"categories_segments":[],"categories_sizes":[],"default_left":[0,0,0,0,0,0,0,0,0,0,0,0,0,0,0,0,0,0,0,0,0,0,0,0,0,0,0,0,0,0,0],"id":26,"left_children":[1,3,5,7,9,11,13,15,17,19,21,23,25,27,29,-1,-1,-1,-1,-1,-1,-1,-1,-1,-1,-1,-1,-1,-1,-1,-1],"loss_changes":[2.1001787E1,9.617453E0,1.6384357E1,5.14357E0,3.9784412E0,1.7582262E1,8.105503E0,4.1858516E0,2.0747237E0,4.7663364E0,2.8624628E0,5.546022E0,8.186131E0,7.8304157E0,8.349112E0,0E0,0E0,0E0,0E0,0E0,0E0,0E0,0E0,0E0,0E0,0E0,0E0,0E0,0E0,0E0,0E0],"parents":[2147483647,0,0,1,1,2,2,3,3,4,4,5,5,6,6,7,7,8,8,9,9,10,10,11,11,12,12,13,13,14,14],"right_children":[2,4,6,8,10,12,14,16,18,20,22,24,26,28,30,-1,-1,-1,-1,-1,-1,-1,-1,-1,-1,-1,-1,-1,-1,-1,-1],"split_conditions":[3.8010618E-1,3.1934306E-3,1E0,1E0,1E0,1.056566E-1,7.070087E-1,-3.1134462E-2,2.8545052E-1,1E0,1.1933634E1,1E0,6.051633E-1,-3.1809884E-1,1.3092352E-1,1.9282936E-4,-1.3180816E-4,8.6376525E-4,1.7853401E-4,-3.6805173E-4,9.6956515E-5,2.0938882E-4,-4.466104E-4,-1.5230842E-4,9.388137E-4,6.580154E-4,2.0115867E-3,1.4727466E-2,1.4001402E-3,9.590693E-4,8.175319E-3],"split_indices":[6,1,12,16,13,2,5,2,5,16,7,15,6,2,1,0,0,0,0,0,0,0,0,0,0,0,0,0,0,0,0],"split_type":[0,0,0,0,0,0,0,0,0,0,0,0,0,0,0,0,0,0,0,0,0,0,0,0,0,0,0,0,0,0,0],"sum_hessian":[4.42301E5,3.57649E5,8.4652E4,1.6074E5,1.96909E5,7.7296E4,7.356E3,1.44401E5,1.6339E4,1.63416E5,3.3493E4,4.889E4,2.8406E4,6.765E3,5.91E2,6.502E4,7.9381E4,9.469E3,6.87E3,1.40319E5,2.3097E4,2.5694E4,7.799E3,4.4264E4,4.626E3,2.3557E4,4.849E3,3.5E1,6.73E3,2.52E2,3.39E2],"tree_param":{"num_deleted":"0","num_feature":"20","num_nodes":"31","size_leaf_vector":"1"}},{"base_weights":[-5.5423356E-5,-1.6667625E-3,2.9932274E-2,7.78262E-3,-3.9147427E-3,5.0430425E-2,2.2604272E-3,1.5490615E-2,3.821221E-3,-2.6700539E-3,-1.8562118E-2,2.4787593E-1,4.216866E-2,-7.7906926E-3,7.457065E-2,1.1063487E-3,3.81329E-4,1.6596974E-5,4.93753E-4,1.7462502E-3,-8.8753666E-5,-4.9496046E-4,-1.2859573E-3,3.5995007E-3,4.6464495E-2,-7.246103E-4,1.650581E-3,6.851712E-4,-8.5367396E-4,9.4191445E-4,7.194253E-3],"categories":[],"categories_nodes":[],"categories_segments":[],"categories_sizes":[],"default_left":[0,0,0,0,0,0,0,0,0,0,0,0,0,0,0,0,0,0,0,0,0,0,0,0,0,0,0,0,0,0,0],"id":27,"left_children":[1,3,5,7,9,11,13,15,17,19,21,23,25,27,29,-1,-1,-1,-1,-1,-1,-1,-1,-1,-1,-1,-1,-1,-1,-1,-1],"loss_changes":[2.1369963E1,8.915937E0,1.278878E1,2.461677E0,6.180546E0,2.106443E1,6.9856915E0,1.6226854E0,2.1998882E0,5.485306E0,1.3250723E0,8.533896E1,1.0610661E1,5.342604E0,8.316853E0,0E0,0E0,0E0,0E0,0E0,0E0,0E0,0E0,0E0,0E0,0E0,0E0,0E0,0E0,0E0,0E0],"parents":[2147483647,0,0,1,1,2,2,3,3,4,4,5,5,6,6,7,7,8,8,9,9,10,10,11,11,12,12,13,13,14,14],"right_children":[2,4,6,8,10,12,14,16,18,20,22,24,26,28,30,-1,-1,-1,-1,-1,-1,-1,-1,-1,-1,-1,-1,-1,-1,-1,-1],"split_conditions":[5.432207E-1,-2.6993714E-2,1.2461257E1,-2.6871476E-1,1E0,-6.787772E-1,1E0,-3.9249146E-1,3.71392E-1,-4.7701716E-1,3.25837E-1,1.7790498E0,-4.555747E-1,-4.837641E-1,7.4510217E-1,1.1063487E-3,3.81329E-4,1.6596974E-5,4.93753E-4,1.7462502E-3,-8.8753666E-5,-4.9496046E-4,-1.2859573E-3,3.5995007E-3,4.6464495E-2,-7.246103E-4,1.650581E-3,6.851712E-4,-8.5367396E-4,9.4191445E-4,7.194253E-3],"split_indices":[6,0,7,4,11,8,12,8,6,8,6,4,8,3,5,0,0,0,0,0,0,0,0,0,0,0,0,0,0,0,0],"split_type":[0,0,0,0,0,0,0,0,0,0,0,0,0,0,0,0,0,0,0,0,0,0,0,0,0,0,0,0,0,0,0],"sum_hessian":[4.42275E5,4.19728E5,2.2547E4,8.0656E4,3.39072E5,1.2949E4,9.598E3,2.7371E4,5.3285E4,3.12524E5,2.6548E4,5.14E2,1.2435E4,8.43E3,1.168E3,3.139E3,2.4232E4,4.2344E4,1.0941E4,1.468E3,3.11056E5,2.448E4,2.068E3,4.73E2,4.1E1,2.017E3,1.0418E4,3.395E3,5.035E3,9.31E2,2.37E2],"tree_param":{"num_deleted":"0","num_feature":"20","num_nodes":"31","size_leaf_vector":"1"}},{"base_weights":[-2.8071414E-5,-1.5978707E-3,2.92182E-2,7.767515E-3,-3.8303565E-3,8.6087175E-3,5.4826535E-2,4.837929E-2,7.0794914E-3,-2.2144944E-3,-1.5933413E-2,2.6428008E-3,8.708934E-2,2.1400632E-1,5.0612602E-2,-2.9873424E-3,1.5897166E-3,1.7891302E-4,9.2605036E-4,-2.0047777E-5,-5.415975E-4,-3.8944595E-4,-9.884355E-4,1.0671401E-3,-5.342991E-4,1.4332078E-2,1.8645121E-3,2.4357177E-2,-4.6617906E-3,1.6962588E-3,-8.474745E-4],"categories":[],"categories_nodes":[],"categories_segments":[],"categories_sizes":[],"default_left":[0,0,0,0,0,0,0,0,0,0,0,0,0,0,0,0,0,0,0,0,0,0,0,0,0,0,0,0,0,0,0],"id":28,"left_children":[1,3,5,7,9,11,13,15,17,19,21,23,25,27,29,-1,-1,-1,-1,-1,-1,-1,-1,-1,-1,-1,-1,-1,-1,-1,-1],"loss_changes":[2.029004E1,8.770102E0,1.1876255E1,2.2515402E0,6.6233573E0,5.8380775E0,6.665159E0,9.4034386E-1,2.104709E0,7.3177276E0,1.9991245E0,7.81979E0,8.407524E0,5.7425617E1,4.5848637E0,0E0,0E0,0E0,0E0,0E0,0E0,0E0,0E0,0E0,0E0,0E0,0E0,0E0,0E0,0E0,0E0],"parents":[2147483647,0,0,1,1,2,2,3,3,4,4,5,5,6,6,7,7,8,8,9,9,10,10,11,11,12,12,13,13,14,14],"right_children":[2,4,6,8,10,12,14,16,18,20,22,24,26,28,30,-1,-1,-1,-1,-1,-1,-1,-1,-1,-1,-1,-1,-1,-1,-1,-1],"split_conditions":[5.432207E-1,-2.6993714E-2,7.267583E-2,-4.7701716E-1,1E0,1E0,-6.787772E-1,-6.787772E-1,1E0,1E0,3.4802756E-1,1.2027606E1,-1.1615565E0,1.2442924E1,1E0,-2.9873424E-3,1.5897166E-3,1.7891302E-4,9.2605036E-4,-2.0047777E-5,-5.415975E-4,-3.8944595E-4,-9.884355E-4,1.0671401E-3,-5.342991E-4,1.4332078E-2,1.8645121E-3,2.4357177E-2,-4.6617906E-3,1.6962588E-3,-8.474745E-4],"split_indices":[6,0,2,8,14,12,8,8,12,11,6,7,4,7,14,0,0,0,0,0,0,0,0,0,0,0,0,0,0,0,0],"split_type":[0,0,0,0,0,0,0,0,0,0,0,0,0,0,0,0,0,0,0,0,0,0,0,0,0,0,0,0,0,0,0],"sum_hessian":[4.41965E5,4.19457E5,2.2508E4,8.0735E4,3.38722E5,1.2476E4,1.0032E4,1.338E3,7.9397E4,2.98835E5,3.9887E4,1.16E4,8.76E2,2.52E2,9.78E3,3.7E1,1.301E3,7.5848E4,3.549E3,2.72264E5,2.6571E4,3.4E4,5.887E3,4.444E3,7.156E3,4.7E1,8.29E2,9.4E1,1.58E2,9.098E3,6.82E2],"tree_param":{"num_deleted":"0","num_feature":"20","num_nodes":"31","size_leaf_vector":"1"}},{"base_weights":[-6.249674E-5,-1.4657384E-3,2.6344756E-2,5.6259725E-3,-4.349421E-3,4.6321828E-2,-5.9895526E-4,4.4464335E-2,4.9622073E-3,-1.6123084E-2,-1.8353543E-3,2.5571677E-1,3.7503988E-2,-1.956954E-2,2.5148958E-2,1.9761748E-3,3.311964E-4,1.8988611E-4,-3.4956424E-4,1.4425223E-3,-5.304833E-4,-1.4726465E-4,8.061122E-4,4.0235934E-3,4.455297E-2,5.182961E-4,2.355682E-3,5.070909E-4,-1.8308014E-3,1.3004588E-3,-2.6215168E-3],"categories":[],"categories_nodes":[],"categories_segments":[],"categories_sizes":[],"default_left":[0,0,0,0,0,0,0,0,0,0,0,0,0,0,0,0,0,0,0,0,0,0,0,0,0,0,0,0,0,0,0],"id":29,"left_children":[1,3,5,7,9,11,13,15,17,19,21,23,25,27,29,-1,-1,-1,-1,-1,-1,-1,-1,-1,-1,-1,-1,-1,-1,-1,-1],"loss_changes":[1.6395529E1,8.592515E0,1.2018999E1,3.1275604E0,8.840733E0,2.3610224E1,4.646881E0,1.4515371E0,2.7130928E0,5.265976E0,2.1717241E1,7.6209045E1,1.02012615E1,8.291883E0,8.280663E0,0E0,0E0,0E0,0E0,0E0,0E0,0E0,0E0,0E0,0E0,0E0,0E0,0E0,0E0,0E0,0E0],"parents":[2147483647,0,0,1,1,2,2,3,3,4,4,5,5,6,6,7,7,8,8,9,9,10,10,11,11,12,12,13,13,14,14],"right_children":[2,4,6,8,10,12,14,16,18,20,22,24,26,28,30,-1,-1,-1,-1,-1,-1,-1,-1,-1,-1,-1,-1,-1,-1,-1,-1],"split_conditions":[5.432207E-1,-3.239174E-1,1.2461257E1,-4.7701716E-1,-1.6386083E-1,-6.787772E-1,-2.667053E-1,4.6927708E-1,1E0,-4.555747E-1,3.8010618E-1,1.7790498E0,-1.2506863E-1,-4.59876E-1,2.4296288E0,1.9761748E-3,3.311964E-4,1.8988611E-4,-3.4956424E-4,1.4425223E-3,-5.304833E-4,-1.4726465E-4,8.061122E-4,4.0235934E-3,4.455297E-2,5.182961E-4,2.355682E-3,5.070909E-4,-1.8308014E-3,1.3004588E-3,-2.6215168E-3],"split_indices":[6,3,7,8,8,8,8,6,11,8,6,4,8,3,4,0,0,0,0,0,0,0,0,0,0,0,0,0,0,0,0],"split_type":[0,0,0,0,0,0,0,0,0,0,0,0,0,0,0,0,0,0,0,0,0,0,0,0,0,0,0,0,0,0,0],"sum_hessian":[4.42479E5,4.20159E5,2.232E4,1.21453E5,2.98706E5,1.2816E4,9.504E3,2.034E3,1.19419E5,5.2552E4,2.46154E5,5.12E2,1.2304E4,5.474E3,4.03E3,1.236E3,7.98E2,1.10344E5,9.075E3,1.242E3,5.131E4,2.22353E5,2.3801E4,4.71E2,4.1E1,8.246E3,4.058E3,2.913E3,2.561E3,3.472E3,5.58E2],"tree_param":{"num_deleted":"0","num_feature":"20","num_nodes":"31","size_leaf_vector":"1"}},{"base_weights":[3.419442E-5,-1.3821146E-3,2.646584E-2,2.0999744E-4,-1.3219824E-2,6.457119E-3,5.0571498E-2,1.7130205E-3,-1.6069565E-2,-1.2910648E-2,-1.390171E-1,-1.6923866E-4,9.4240405E-2,5.6884572E-2,-3.3813883E-2,3.4501325E-4,-6.1454534E-6,-6.281761E-4,-1.3385071E-4,6.9598603E-4,-4.2420402E-4,-7.2755413E-3,-7.106823E-4,-9.555751E-5,6.527315E-3,1.4956508E-2,1.9874244E-3,2.4949613E-3,5.305727E-4,-3.098359E-3,4.3904353E-3],"categories":[],"categories_nodes":[],"categories_segments":[],"categories_sizes":[],"default_left":[0,0,0,0,0,0,0,0,0,0,0,0,0,0,0,0,0,0,0,0,0,0,0,0,0,0,0,0,0,0,0],"id":30,"left_children":[1,3,5,7,9,11,13,15,17,19,21,23,25,27,29,-1,-1,-1,-1,-1,-1,-1,-1,-1,-1,-1,-1,-1,-1,-1,-1],"loss_changes":[1.6543045E1,7.905097E0,1.0835734E1,9.045006E0,1.917367E0,7.1525097E0,5.4403687E0,6.3534875E0,1.7643652E0,2.2036304E0,1.4022837E0,7.49912E0,9.573896E0,9.758825E0,8.984021E0,0E0,0E0,0E0,0E0,0E0,0E0,0E0,0E0,0E0,0E0,0E0,0E0,0E0,0E0,0E0,0E0],"parents":[2147483647,0,0,1,1,2,2,3,3,4,4,5,5,6,6,7,7,8,8,9,9,10,10,11,11,12,12,13,13,14,14],"right_children":[2,4,6,8,10,12,14,16,18,20,22,24,26,28,30,-1,-1,-1,-1,-1,-1,-1,-1,-1,-1,-1,-1,-1,-1,-1,-1],"split_conditions":[5.432207E-1,1E0,6.589252E-2,1E0,5.331469E-1,1E0,1E0,-3.1841394E-2,1.1967534E1,-3.8300538E-1,1.1291108E1,1E0,-1.1615565E0,1.2461257E1,1.2406387E1,3.4501325E-4,-6.1454534E-6,-6.281761E-4,-1.3385071E-4,6.9598603E-4,-4.2420402E-4,-7.2755413E-3,-7.106823E-4,-9.555751E-5,6.527315E-3,1.4956508E-2,1.9874244E-3,2.4949613E-3,5.305727E-4,-3.098359E-3,4.3904353E-3],"split_indices":[6,14,2,11,6,12,14,0,7,8,7,19,4,7,7,0,0,0,0,0,0,0,0,0,0,0,0,0,0,0,0],"split_type":[0,0,0,0,0,0,0,0,0,0,0,0,0,0,0,0,0,0,0,0,0,0,0,0,0,0,0,0,0,0,0],"sum_hessian":[4.41866E5,4.19396E5,2.247E4,3.69677E5,4.9719E4,1.2283E4,1.0187E4,3.38438E5,3.1239E4,4.9603E4,1.16E2,1.1425E4,8.58E2,9.48E3,7.07E2,5.5452E4,2.82986E5,2.2001E4,9.238E3,1.629E3,4.7974E4,5.8E1,5.8E1,1.1274E4,1.51E2,5E1,8.08E2,5.671E3,3.809E3,5.12E2,1.95E2],"tree_param":{"num_deleted":"0","num_feature":"20","num_nodes":"31","size_leaf_vector":"1"}},{"base_weights":[7.368754E-5,-1.3716847E-3,2.7136013E-2,5.0831694E-2,-1.7370362E-3,4.50964E-2,-2.498138E-3,3.6339447E-2,1.20534234E-1,-2.6950354E-4,-1.271916E-2,1.9483948E-1,3.825652E-2,-2.1922791E-2,2.6901735E-2,1.4630993E-3,-1.1404674E-3,2.5504164E-3,5.288446E-3,3.7421953E-4,-5.0189054E-5,-2.8888584E-4,-8.87955E-4,2.2654801E-4,2.2832494E-2,6.771143E-4,2.377045E-3,9.300918E-5,-2.256069E-3,1.5292229E-3,-3.4866112E-3],"categories":[],"categories_nodes":[],"categories_segments":[],"categories_sizes":[],"default_left":[0,0,0,0,0,0,0,0,0,0,0,0,0,0,0,0,0,0,0,0,0,0,0,0,0,0,0,0,0,0,0],"id":31,"left_children":[1,3,5,7,9,11,13,15,17,19,21,23,25,27,29,-1,-1,-1,-1,-1,-1,-1,-1,-1,-1,-1,-1,-1,-1,-1,-1],"loss_changes":[1.7288136E1,7.9996767E0,1.1929678E1,2.914832E0,6.713987E0,1.4243113E1,4.834057E0,2.247471E0,9.0010595E-1,6.5727987E0,2.55759E0,6.441158E1,8.567825E0,6.8015184E0,1.1626641E1,0E0,0E0,0E0,0E0,0E0,0E0,0E0,0E0,0E0,0E0,0E0,0E0,0E0,0E0,0E0,0E0],"parents":[2147483647,0,0,1,1,2,2,3,3,4,4,5,5,6,6,7,7,8,8,9,9,10,10,11,11,12,12,13,13,14,14],"right_children":[2,4,6,8,10,12,14,16,18,20,22,24,26,28,30,-1,-1,-1,-1,-1,-1,-1,-1,-1,-1,-1,-1,-1,-1,-1,-1],"split_conditions":[5.432207E-1,-4.7701716E-1,1.2578683E1,1E0,1E0,-6.787772E-1,-2.4804305E-1,1.2909578E1,1.2947844E1,1.0257782E1,3.4802756E-1,1E0,-9.582773E-2,5.557622E-1,2.4296288E0,1.4630993E-3,-1.1404674E-3,2.5504164E-3,5.288446E-3,3.7421953E-4,-5.0189054E-5,-2.8888584E-4,-8.87955E-4,2.2654801E-4,2.2832494E-2,6.771143E-4,2.377045E-3,9.300918E-5,-2.256069E-3,1.5292229E-3,-3.4866112E-3],"split_indices":[6,8,7,10,14,8,8,7,7,7,6,10,8,3,4,0,0,0,0,0,0,0,0,0,0,0,0,0,0,0,0],"split_type":[0,0,0,0,0,0,0,0,0,0,0,0,0,0,0,0,0,0,0,0,0,0,0,0,0,0,0,0,0,0,0],"sum_hessian":[4.41938E5,4.19534E5,2.2404E4,2.91E3,4.16624E5,1.3949E4,8.455E3,2.416E3,4.94E2,3.67522E5,4.9102E4,6.03E2,1.3346E4,5.093E3,3.362E3,2.072E3,3.44E2,3.1E2,1.84E2,3.6453E4,3.31069E5,4.1514E4,7.588E3,4.57E2,1.46E2,9.658E3,3.688E3,3.468E3,1.625E3,2.881E3,4.81E2],"tree_param":{"num_deleted":"0","num_feature":"20","num_nodes":"31","size_leaf_vector":"1"}},{"base_weights":[-1.0647636E-4,-1.3784894E-3,2.562187E-2,-2.2306046E-3,1.9801276E-2,4.447761E-3,4.7608797E-2,4.628806E-3,-4.8038466E-3,1.2046983E-2,7.122273E-2,1.6599054E-3,2.123439E-1,5.1138826E-2,-8.977758E-2,2.5778016E-4,-8.1217164E-5,-5.2110676E-4,-5.745274E-5,1.4095493E-3,1.6950273E-4,4.076574E-3,4.519201E-4,-1.307458E-4,2.618842E-3,1.1392127E-3,9.107987E-3,1.7040034E-3,-7.7661785E-4,-4.6270504E-3,-3.5162375E-4],"categories":[],"categories_nodes":[],"categories_segments":[],"categories_sizes":[],"default_left":[0,0,0,0,0,0,0,0,0,0,0,0,0,0,0,0,0,0,0,0,0,0,0,0,0,0,0,0,0,0,0],"id":32,"left_children":[1,3,5,7,9,11,13,15,17,19,21,23,25,27,29,-1,-1,-1,-1,-1,-1,-1,-1,-1,-1,-1,-1,-1,-1,-1,-1],"loss_changes":[1.4447223E1,7.591769E0,9.678455E0,7.1385946E0,6.4785976E0,6.131712E0,4.9682846E0,3.208563E0,1.067523E1,3.1571486E0,7.7170925E0,5.399795E0,2.1529956E0,4.347328E0,1.2757177E0,0E0,0E0,0E0,0E0,0E0,0E0,0E0,0E0,0E0,0E0,0E0,0E0,0E0,0E0,0E0,0E0],"parents":[2147483647,0,0,1,1,2,2,3,3,4,4,5,5,6,6,7,7,8,8,9,9,10,10,11,11,12,12,13,13,14,14],"right_children":[2,4,6,8,10,12,14,16,18,20,22,24,26,28,30,-1,-1,-1,-1,-1,-1,-1,-1,-1,-1,-1,-1,-1,-1,-1,-1],"split_conditions":[5.537868E-1,1E0,2.71104E-2,-3.6815414E-1,4.6389285E-1,1E0,1E0,-9.259259E-3,-1.5902819E-1,1.1335123E1,4.2740583E-1,1E0,4.0188178E-1,1E0,5.989535E-1,2.5778016E-4,-8.1217164E-5,-5.2110676E-4,-5.745274E-5,1.4095493E-3,1.6950273E-4,4.076574E-3,4.519201E-4,-1.307458E-4,2.618842E-3,1.1392127E-3,9.107987E-3,1.7040034E-3,-7.7661785E-4,-4.6270504E-3,-3.5162375E-4],"split_indices":[6,12,2,3,6,19,17,2,8,7,4,12,5,14,5,0,0,0,0,0,0,0,0,0,0,0,0,0,0,0,0],"split_type":[0,0,0,0,0,0,0,0,0,0,0,0,0,0,0,0,0,0,0,0,0,0,0,0,0,0,0,0,0,0,0],"sum_hessian":[4.41476E5,4.20684E5,2.0792E4,4.0442E5,1.6264E4,1.0596E4,1.0196E4,1.1032E5,2.941E5,1.4139E4,2.125E3,1.0461E4,1.35E2,9.944E3,2.52E2,7.1625E4,3.8695E4,5.4963E4,2.39137E5,2.182E3,1.1957E4,9.84E2,1.141E3,9.778E3,6.83E2,4.9E1,8.6E1,9.265E3,6.79E2,1.35E2,1.17E2],"tree_param":{"num_deleted":"0","num_feature":"20","num_nodes":"31","size_leaf_vector":"1"}},{"base_weights":[-1.7275254E-4,-3.0299192E-3,1.1607005E-2,-4.658834E-3,1.0224138E-2,9.1902947E-4,3.695651E-2,-6.930699E-3,5.585951E-3,2.357208E-2,5.2436707E-3,-7.927966E-4,8.281907E-2,1.0395764E-1,3.3424255E-2,-2.888846E-4,5.6758614E-5,5.250255E-4,-6.358704E-5,7.802883E-4,-3.5609005E-4,1.2757294E-4,1.5788551E-3,1.9031232E-4,-6.3960627E-4,1.01348655E-2,7.625448E-4,1.9938103E-3,6.553881E-3,8.3134515E-4,2.1933224E-3],"categories":[],"categories_nodes":[],"categories_segments":[],"categories_sizes":[],"default_left":[0,0,0,0,0,0,0,0,0,0,0,0,0,0,0,0,0,0,0,0,0,0,0,0,0,0,0,0,0,0,0],"id":33,"left_children":[1,3,5,7,9,11,13,15,17,19,21,23,25,27,29,-1,-1,-1,-1,-1,-1,-1,-1,-1,-1,-1,-1,-1,-1,-1,-1],"loss_changes":[1.4884438E1,7.68437E0,2.3386662E1,7.3778977E0,2.5875645E0,8.518692E0,6.034622E0,6.178151E0,5.283087E0,9.163461E-1,1.3289431E0,8.716542E0,1.814832E1,5.404711E0,5.5002213E0,0E0,0E0,0E0,0E0,0E0,0E0,0E0,0E0,0E0,0E0,0E0,0E0,0E0,0E0,0E0,0E0],"parents":[2147483647,0,0,1,1,2,2,3,3,4,4,5,5,6,6,7,7,8,8,9,9,10,10,11,11,12,12,13,13,14,14],"right_children":[2,4,6,8,10,12,14,16,18,20,22,24,26,28,30,-1,-1,-1,-1,-1,-1,-1,-1,-1,-1,-1,-1,-1,-1,-1,-1],"split_conditions":[3.778364E-1,1E0,-9.582773E-2,1E0,-1.636599E-2,1.7790498E0,9.910143E0,1E0,1.252518E-1,1.3220606E1,1.4627389E0,7.6363677E-1,-4.7701716E-1,5.239309E-1,1E0,-2.888846E-4,5.6758614E-5,5.250255E-4,-6.358704E-5,7.802883E-4,-3.5609005E-4,1.2757294E-4,1.5788551E-3,1.9031232E-4,-6.3960627E-4,1.01348655E-2,7.625448E-4,1.9938103E-3,6.553881E-3,8.3134515E-4,2.1933224E-3],"split_indices":[6,16,8,13,0,4,7,15,4,7,4,3,8,6,13,0,0,0,0,0,0,0,0,0,0,0,0,0,0,0,0],"split_type":[0,0,0,0,0,0,0,0,0,0,0,0,0,0,0,0,0,0,0,0,0,0,0,0,0,0,0,0,0,0,0],"sum_hessian":[4.42245E5,3.55924E5,8.6321E4,3.16975E5,3.8949E4,6.0725E4,2.5596E4,2.59447E5,5.7528E4,1.0576E4,2.8373E4,5.9486E4,1.239E3,1.274E3,2.4322E4,1.98678E5,6.0769E4,2.2593E4,3.4935E4,9.898E3,6.78E2,2.7798E4,5.75E2,4.4141E4,1.5345E4,2.23E2,1.016E3,9.66E2,3.08E2,2.127E4,3.052E3],"tree_param":{"num_deleted":"0","num_feature":"20","num_nodes":"31","size_leaf_vector":"1"}},{"base_weights":[-5.2077634E-5,-2.8302337E-3,1.1389476E-2,2.095169E-3,-6.93759E-3,6.998027E-4,3.672918E-2,3.364247E-4,1.7708747E-2,-8.867695E-3,2.5285324E-3,-4.3269065E-3,7.246874E-2,9.987366E-2,3.3469666E-2,1.1204565E-3,-1.4070351E-5,8.240768E-4,1.6514606E-4,-3.2907596E-4,1.1731679E-4,-5.822382E-4,1.9636373E-4,2.8806538E-4,-4.490871E-4,-1.8472362E-3,2.6016335E-3,1.998E-3,6.1355443E-3,8.420476E-4,2.1297536E-3],"categories":[],"categories_nodes":[],"categories_segments":[],"categories_sizes":[],"default_left":[0,0,0,0,0,0,0,0,0,0,0,0,0,0,0,0,0,0,0,0,0,0,0,0,0,0,0,0,0,0,0],"id":34,"left_children":[1,3,5,7,9,11,13,15,17,19,21,23,25,27,29,-1,-1,-1,-1,-1,-1,-1,-1,-1,-1,-1,-1,-1,-1,-1,-1],"loss_changes":[1.4057691E1,7.19958E0,2.3402523E1,4.4425817E0,3.5458956E0,2.193026E1,5.252617E0,4.3376904E0,1.9485922E0,4.329172E0,2.8959632E0,8.421313E0,7.6295834E0,4.2881308E0,4.9270496E0,0E0,0E0,0E0,0E0,0E0,0E0,0E0,0E0,0E0,0E0,0E0,0E0,0E0,0E0,0E0,0E0],"parents":[2147483647,0,0,1,1,2,2,3,3,4,4,5,5,6,6,7,7,8,8,9,9,10,10,11,11,12,12,13,13,14,14],"right_children":[2,4,6,8,10,12,14,16,18,20,22,24,26,28,30,-1,-1,-1,-1,-1,-1,-1,-1,-1,-1,-1,-1,-1,-1,-1,-1],"split_conditions":[3.778364E-1,4.0362035E-3,-9.582773E-2,1E0,1E0,1E0,9.910143E0,-3.7468636E-1,2.783371E-1,1E0,-1.356536E-1,-4.837641E-1,9.544979E0,5.331469E-1,1E0,1.1204565E-3,-1.4070351E-5,8.240768E-4,1.6514606E-4,-3.2907596E-4,1.1731679E-4,-5.822382E-4,1.9636373E-4,2.8806538E-4,-4.490871E-4,-1.8472362E-3,2.6016335E-3,1.998E-3,6.1355443E-3,8.420476E-4,2.1297536E-3],"split_indices":[6,1,8,16,13,12,7,8,5,16,8,3,7,6,13,0,0,0,0,0,0,0,0,0,0,0,0,0,0,0,0],"split_type":[0,0,0,0,0,0,0,0,0,0,0,0,0,0,0,0,0,0,0,0,0,0,0,0,0,0,0,0,0,0,0],"sum_hessian":[4.42258E5,3.55859E5,8.6399E4,1.61811E5,1.94048E5,6.077E4,2.5629E4,1.45437E5,1.6374E4,1.61188E5,3.286E4,5.6796E4,3.974E3,1.25E3,2.4379E4,3.094E3,1.42343E5,9.092E3,7.282E3,1.38427E5,2.2761E4,5.081E3,2.7779E4,2.4598E4,3.2198E4,3.8E2,3.594E3,9.55E2,2.95E2,2.132E4,3.059E3],"tree_param":{"num_deleted":"0","num_feature":"20","num_nodes":"31","size_leaf_vector":"1"}},{"base_weights":[-5.662345E-6,-1.142939E-3,2.584469E-2,7.195029E-3,-3.4144272E-3,2.1170126E-1,2.284098E-2,6.487063E-2,6.6572274E-3,-4.6894723E-3,9.591977E-3,1.45328455E-2,1.5535444E-1,1.991778E-2,1.2798049E-1,1.1508373E-2,-1.2769637E-4,1.3313977E-4,5.2305154E-4,2.1011748E-4,-1.776089E-4,-1.6158486E-4,5.3062855E-4,5.115924E-4,6.602237E-3,1.6852517E-3,5.019773E-4,8.546024E-3,2.7953077E-3],"categories":[],"categories_nodes":[],"categories_segments":[],"categories_sizes":[],"default_left":[0,0,0,0,0,0,0,0,0,0,0,0,0,0,0,0,0,0,0,0,0,0,0,0,0,0,0,0,0],"id":35,"left_children":[1,3,5,7,9,11,13,15,17,19,21,-1,23,25,27,-1,-1,-1,-1,-1,-1,-1,-1,-1,-1,-1,-1,-1,-1],"loss_changes":[1.2978248E1,8.009318E0,1.0349385E1,2.8025746E0,5.511722E0,4.1250734E0,5.6082487E0,1.842529E1,2.1442032E0,4.356653E0,3.598927E0,0E0,2.2250009E0,2.0500917E0,2.5457335E0,0E0,0E0,0E0,0E0,0E0,0E0,0E0,0E0,0E0,0E0,0E0,0E0,0E0,0E0],"parents":[2147483647,0,0,1,1,2,2,3,3,4,4,5,5,6,6,7,7,8,8,9,9,10,10,12,12,13,13,14,14],"right_children":[2,4,6,8,10,12,14,16,18,20,22,-1,24,26,28,-1,-1,-1,-1,-1,-1,-1,-1,-1,-1,-1,-1,-1,-1],"split_conditions":[1E0,-2.4816558E-2,-9.642438E-1,-6.787772E-1,9.506998E-1,-4.022716E-1,3.4368951E0,1.2093767E1,1E0,1.0211824E1,1.1246711E1,1.45328455E-2,-1.6086497E0,1.1081798E1,7.513189E-1,1.1508373E-2,-1.2769637E-4,1.3313977E-4,5.2305154E-4,2.1011748E-4,-1.776089E-4,-1.6158486E-4,5.3062855E-4,5.115924E-4,6.602237E-3,1.6852517E-3,5.019773E-4,8.546024E-3,2.7953077E-3],"split_indices":[12,0,4,8,4,8,3,7,16,7,7,0,3,7,4,0,0,0,0,0,0,0,0,0,0,0,0,0,0],"split_type":[0,0,0,0,0,0,0,0,0,0,0,0,0,0,0,0,0,0,0,0,0,0,0,0,0,0,0,0,0],"sum_hessian":[4.41484E5,4.22886E5,1.8598E4,9.0533E4,3.32353E5,2.9E2,1.8308E4,8.3E2,8.9703E4,3.02687E5,2.9666E4,4.3E1,2.47E2,1.7819E4,4.89E2,1.44E2,6.86E2,7.4396E4,1.5307E4,2.882E4,2.73867E5,1.0407E4,1.9259E4,8.1E1,1.66E2,1.431E3,1.6388E4,8.2E1,4.07E2],"tree_param":{"num_deleted":"0","num_feature":"20","num_nodes":"29","size_leaf_vector":"1"}},{"base_weights":[1.8044983E-4,-8.43449E-4,3.19857E-2,9.679903E-3,-2.436788E-3,7.2368026E-2,4.8870947E-3,8.273693E-3,3.587666E-2,-1.3240156E-3,-1.5684014E-2,3.9239503E-2,2.6392683E-1,-8.677503E-3,1.24754295E-1,4.480853E-4,1.1409661E-4,4.4172362E-4,2.7559486E-3,1.0488822E-5,-3.854308E-4,7.0731563E-4,-5.0737103E-4,2.412694E-3,1.4209126E-4,2.034278E-3,2.1800408E-2,1.2101129E-3,-6.8336225E-4,2.425558E-3,8.599071E-3],"categories":[],"categories_nodes":[],"categories_segments":[],"categories_sizes":[],"default_left":[0,0,0,0,0,0,0,0,0,0,0,0,0,0,0,0,0,0,0,0,0,0,0,0,0,0,0,0,0,0,0],"id":36,"left_children":[1,3,5,7,9,11,13,15,17,19,21,23,25,27,29,-1,-1,-1,-1,-1,-1,-1,-1,-1,-1,-1,-1,-1,-1,-1,-1],"loss_changes":[1.4394473E1,7.1792483E0,1.5080455E1,2.0704074E0,5.4810867E0,3.5058506E1,1.3435063E1,1.5905492E0,3.380911E0,6.617429E0,1.3912635E0,6.707893E0,7.367847E1,5.132863E0,5.8356085E0,0E0,0E0,0E0,0E0,0E0,0E0,0E0,0E0,0E0,0E0,0E0,0E0,0E0,0E0,0E0,0E0],"parents":[2147483647,0,0,1,1,2,2,3,3,4,4,5,5,6,6,7,7,8,8,9,9,10,10,11,11,12,12,13,13,14,14],"right_children":[2,4,6,8,10,12,14,16,18,20,22,24,26,28,30,-1,-1,-1,-1,-1,-1,-1,-1,-1,-1,-1,-1,-1,-1,-1,-1],"split_conditions":[6.051633E-1,-3.7542664E-2,1.2137113E1,1E0,1E0,1E0,1E0,-6.71388E-2,4.5879582E-1,1E0,1.0187327E1,1.1362303E1,8.218304E-1,6.4035445E-1,7.4904656E-1,4.480853E-4,1.1409661E-4,4.4172362E-4,2.7559486E-3,1.0488822E-5,-3.854308E-4,7.0731563E-4,-5.0737103E-4,2.412694E-3,1.4209126E-4,2.034278E-3,2.1800408E-2,1.2101129E-3,-6.8336225E-4,2.425558E-3,8.599071E-3],"split_indices":[6,0,7,12,11,10,12,2,6,14,7,7,6,6,6,0,0,0,0,0,0,0,0,0,0,0,0,0,0,0,0],"split_type":[0,0,0,0,0,0,0,0,0,0,0,0,0,0,0,0,0,0,0,0,0,0,0,0,0,0,0,0,0,0,0],"sum_hessian":[4.41961E5,4.2818E5,1.3781E4,5.6298E4,3.71882E5,5.53E3,8.251E3,5.3438E4,2.86E3,3.43073E5,2.8809E4,4.72E3,8.1E2,7.416E3,8.35E2,2.1449E4,3.1989E4,2.081E3,7.79E2,2.99566E5,4.3507E4,8.7E2,2.7939E4,2.148E3,2.572E3,5.73E2,2.37E2,1.654E3,5.762E3,6.63E2,1.72E2],"tree_param":{"num_deleted":"0","num_feature":"20","num_nodes":"31","size_leaf_vector":"1"}},{"base_weights":[-2.2475192E-6,-3.333133E-3,7.454775E-3,-5.1535456E-3,1.2267884E-2,4.97728E-3,3.9846238E-2,-7.2230105E-3,4.3666E-3,2.726132E-2,5.571912E-3,1.9148922E-3,2.3655228E-2,3.212105E-2,1.2944366E-1,-7.203018E-5,-3.4160423E-4,5.312231E-4,-3.709456E-5,7.942929E-4,3.895896E-3,5.370183E-4,-3.1692616E-5,1.8918597E-3,3.061081E-5,-9.2678855E-4,7.9895643E-4,2.1950887E-3,4.1719739E-4,6.6272984E-4,6.49103E-3],"categories":[],"categories_nodes":[],"categories_segments":[],"categories_sizes":[],"default_left":[0,0,0,0,0,0,0,0,0,0,0,0,0,0,0,0,0,0,0,0,0,0,0,0,0,0,0,0,0,0,0],"id":37,"left_children":[1,3,5,7,9,11,13,15,17,19,21,23,25,27,29,-1,-1,-1,-1,-1,-1,-1,-1,-1,-1,-1,-1,-1,-1,-1,-1],"loss_changes":[1.0973761E1,8.673493E0,1.09436245E1,5.3886323E0,3.201324E0,7.247053E0,6.67813E0,4.510003E0,3.651342E0,7.68065E-1,1.8043053E0,5.952105E0,2.9018993E0,6.6658297E0,7.121459E0,0E0,0E0,0E0,0E0,0E0,0E0,0E0,0E0,0E0,0E0,0E0,0E0,0E0,0E0,0E0,0E0],"parents":[2147483647,0,0,1,1,2,2,3,3,4,4,5,5,6,6,7,7,8,8,9,9,10,10,11,11,12,12,13,13,14,14],"right_children":[2,4,6,8,10,12,14,16,18,20,22,24,26,28,30,-1,-1,-1,-1,-1,-1,-1,-1,-1,-1,-1,-1,-1,-1,-1,-1],"split_conditions":[3.1894258E-1,1E0,1E0,1E0,-1.1578306E-2,1E0,6.773401E-1,5.388493E-3,3.9673574E-2,1.4042868E-1,1.3574661E-2,-6.787772E-1,-4.3836543E-1,-1.7250717E-1,1.3092352E-1,-7.203018E-5,-3.4160423E-4,5.312231E-4,-3.709456E-5,7.942929E-4,3.895896E-3,5.370183E-4,-3.1692616E-5,1.8918597E-3,3.061081E-5,-9.2678855E-4,7.9895643E-4,2.1950887E-3,4.1719739E-4,6.6272984E-4,6.49103E-3],"split_indices":[5,16,12,13,0,15,5,1,4,1,1,8,8,8,1,0,0,0,0,0,0,0,0,0,0,0,0,0,0,0,0],"split_type":[0,0,0,0,0,0,0,0,0,0,0,0,0,0,0,0,0,0,0,0,0,0,0,0,0,0,0,0,0,0,0],"sum_hessian":[4.41803E5,3.05398E5,1.36405E5,2.73492E5,3.1906E4,1.2672E5,9.685E3,2.24662E5,4.883E4,9.843E3,2.2063E4,1.08877E5,1.7843E4,8.923E3,7.62E2,1.04112E5,1.2055E5,1.4442E4,3.4388E4,9.775E3,6.8E1,7.714E3,1.4349E4,1.564E3,1.07313E5,9.2E2,1.6923E4,2.737E3,6.186E3,3.44E2,4.18E2],"tree_param":{"num_deleted":"0","num_feature":"20","num_nodes":"31","size_leaf_vector":"1"}},{"base_weights":[8.455624E-5,-2.0059822E-3,1.41395405E-2,1.6967262E-3,-6.33211E-3,2.1795833E-3,4.5940764E-2,7.6757544E-3,-1.1144624E-3,-1.9517269E-2,-4.6875705E-3,1.6254755E-2,-1.229685E-2,3.8828157E-2,1.05681844E-1,6.853619E-4,4.9902268E-5,5.609101E-6,-5.82527E-4,-7.210456E-4,7.401411E-4,-2.695126E-4,1.2977912E-4,3.6695157E-4,2.0536166E-3,-4.2105262E-4,4.5607234E-3,9.3939406E-4,2.8334924E-3,1.0394227E-2,2.5685425E-3],"categories":[],"categories_nodes":[],"categories_segments":[],"categories_sizes":[],"default_left":[0,0,0,0,0,0,0,0,0,0,0,0,0,0,0,0,0,0,0,0,0,0,0,0,0,0,0,0,0,0,0],"id":38,"left_children":[1,3,5,7,9,11,13,15,17,19,21,23,25,27,29,-1,-1,-1,-1,-1,-1,-1,-1,-1,-1,-1,-1,-1,-1,-1,-1],"loss_changes":[1.3000442E1,6.1696887E0,2.1786844E1,3.4884536E0,3.8499107E0,8.485489E0,6.6247253E0,6.052234E0,3.3633034E0,3.9341664E0,6.1164274E0,4.426116E0,5.86716E0,5.830469E0,7.8595295E0,0E0,0E0,0E0,0E0,0E0,0E0,0E0,0E0,0E0,0E0,0E0,0E0,0E0,0E0,0E0,0E0],"parents":[2147483647,0,0,1,1,2,2,3,3,4,4,5,5,6,6,7,7,8,8,9,9,10,10,11,11,12,12,13,13,14,14],"right_children":[2,4,6,8,10,12,14,16,18,20,22,24,26,28,30,-1,-1,-1,-1,-1,-1,-1,-1,-1,-1,-1,-1,-1,-1,-1,-1],"split_conditions":[4.2567036E-1,1.8625561E-2,-9.582773E-2,-2.1600622E-1,-1.8230069E-1,-3.2703488E-3,1E0,2.3374252E-1,1E0,1E0,2.8633586E-1,8.218304E-1,6.853499E-1,1E0,5.6634303E-2,6.853619E-4,4.9902268E-5,5.609101E-6,-5.82527E-4,-7.210456E-4,7.401411E-4,-2.695126E-4,1.2977912E-4,3.6695157E-4,2.0536166E-3,-4.2105262E-4,4.5607234E-3,9.3939406E-4,2.8334924E-3,1.0394227E-2,2.5685425E-3],"split_indices":[6,1,8,4,8,0,15,6,18,10,6,6,2,13,2,0,0,0,0,0,0,0,0,0,0,0,0,0,0,0,0],"split_type":[0,0,0,0,0,0,0,0,0,0,0,0,0,0,0,0,0,0,0,0,0,0,0,0,0,0,0,0,0,0,0],"sum_hessian":[4.42425E5,3.8514E5,5.7285E4,2.07518E5,1.77622E5,4.1634E4,1.5651E4,6.6369E4,1.41149E5,1.9688E4,1.57934E5,2.1111E4,2.0523E4,1.3994E4,1.657E3,1.8832E4,4.7537E4,1.31781E5,9.368E3,1.7865E4,1.823E3,1.06959E5,5.0975E4,1.9607E4,1.504E3,2.0313E4,2.1E2,1.2336E4,1.658E3,1.21E2,1.536E3],"tree_param":{"num_deleted":"0","num_feature":"20","num_nodes":"31","size_leaf_vector":"1"}},{"base_weights":[3.4109562E-5,-1.046043E-3,2.4647625E-2,9.625199E-3,-2.7163455E-3,1.2011243E-2,6.570731E-2,7.6335054E-3,3.7715882E-2,-1.6807368E-3,-1.482028E-2,4.3351404E-2,6.340569E-3,1.7339757E-1,4.89478E-2,2.7950166E-4,-4.0531193E-4,3.085587E-3,1.6276183E-4,-7.196833E-5,4.3070465E-4,-3.8169176E-4,-1.1169405E-3,1.4851032E-3,-3.422677E-3,-3.521258E-4,6.2675774E-4,1.2706425E-2,3.9902767E-3,1.0616779E-3,3.8660355E-3],"categories":[],"categories_nodes":[],"categories_segments":[],"categories_sizes":[],"default_left":[0,0,0,0,0,0,0,0,0,0,0,0,0,0,0,0,0,0,0,0,0,0,0,0,0,0,0,0,0,0,0],"id":39,"left_children":[1,3,5,7,9,11,13,15,17,19,21,23,25,27,29,-1,-1,-1,-1,-1,-1,-1,-1,-1,-1,-1,-1,-1,-1,-1,-1],"loss_changes":[1.1746362E1,7.543006E0,9.62921E0,3.200605E0,4.5859985E0,2.5215402E0,7.8317757E0,1.9040811E0,7.961223E0,3.8824048E0,1.3505001E0,2.131672E0,3.1689358E0,5.6109333E0,4.073655E0,0E0,0E0,0E0,0E0,0E0,0E0,0E0,0E0,0E0,0E0,0E0,0E0,0E0,0E0,0E0,0E0],"parents":[2147483647,0,0,1,1,2,2,3,3,4,4,5,5,6,6,7,7,8,8,9,9,10,10,11,11,12,12,13,13,14,14],"right_children":[2,4,6,8,10,12,14,16,18,20,22,24,26,28,30,-1,-1,-1,-1,-1,-1,-1,-1,-1,-1,-1,-1,-1,-1,-1,-1],"split_conditions":[1E0,-3.7542664E-2,4.6389285E-1,6.051633E-1,1E0,1.1335123E1,-3.953313E-1,5.321983E-1,1.2066456E1,2.110707E0,3.25837E-1,1.3423617E0,1.2196531E1,-3.8300538E-1,7.070087E-1,2.7950166E-4,-4.0531193E-4,3.085587E-3,1.6276183E-4,-7.196833E-5,4.3070465E-4,-3.8169176E-4,-1.1169405E-3,1.4851032E-3,-3.422677E-3,-3.521258E-4,6.2675774E-4,1.2706425E-2,3.9902767E-3,1.0616779E-3,3.8660355E-3],"split_indices":[12,0,6,6,11,7,4,5,7,3,6,4,7,8,5,0,0,0,0,0,0,0,0,0,0,0,0,0,0,0,0],"split_type":[0,0,0,0,0,0,0,0,0,0,0,0,0,0,0,0,0,0,0,0,0,0,0,0,0,0,0,0,0,0,0],"sum_hessian":[4.41765E5,4.23196E5,1.8569E4,5.7268E4,3.65928E5,1.4205E4,4.364E3,5.3484E4,3.784E3,3.37096E5,2.8832E4,2.17E3,1.2035E4,5.81E2,3.783E3,4.9545E4,3.939E3,1.25E3,2.534E3,3.22654E5,1.4442E4,2.6374E4,2.458E3,2.092E3,7.8E1,5.366E3,6.669E3,7.4E1,5.07E2,3.241E3,5.42E2],"tree_param":{"num_deleted":"0","num_feature":"20","num_nodes":"31","size_leaf_vector":"1"}},{"base_weights":[-4.347602E-5,-1.4240538E-3,2.0697212E-2,4.900234E-2,-1.7336799E-3,1.1949859E-2,6.360692E-2,1.5932378E-1,4.305891E-2,-3.9561043E-4,-1.1681652E-2,3.1994656E-2,-2.9336873E-3,3.0133164E-1,5.6186963E-2,6.976922E-3,1.3442413E-3,5.810923E-4,2.064735E-3,2.7384209E-5,-4.2950697E-4,-2.620177E-4,-8.509065E-4,1.0833228E-2,6.4121623E-4,-3.5434176E-4,2.04155E-3,6.4330352E-3,1.3962644E-2,-5.5171553E-5,2.563805E-3],"categories":[],"categories_nodes":[],"categories_segments":[],"categories_sizes":[],"default_left":[0,0,0,0,0,0,0,0,0,0,0,0,0,0,0,0,0,0,0,0,0,0,0,0,0,0,0,0,0,0,0],"id":40,"left_children":[1,3,5,7,9,11,13,15,17,19,21,23,25,27,29,-1,-1,-1,-1,-1,-1,-1,-1,-1,-1,-1,-1,-1,-1,-1,-1],"loss_changes":[1.2659108E1,6.4704256E0,1.0348603E1,1.6138129E0,5.4837627E0,6.8416123E0,8.134914E0,9.9919724E-1,1.4580741E0,6.615971E0,2.3987474E0,3.40962E1,8.294468E0,1.4632463E0,7.708152E0,0E0,0E0,0E0,0E0,0E0,0E0,0E0,0E0,0E0,0E0,0E0,0E0,0E0,0E0,0E0,0E0],"parents":[2147483647,0,0,1,1,2,2,3,3,4,4,5,5,6,6,7,7,8,8,9,9,10,10,11,11,12,12,13,13,14,14],"right_children":[2,4,6,8,10,12,14,16,18,20,22,24,26,28,30,-1,-1,-1,-1,-1,-1,-1,-1,-1,-1,-1,-1,-1,-1,-1,-1],"split_conditions":[5.147508E-1,-4.7701716E-1,-5.48734E-2,-3.8149732E-1,1E0,1.2093767E1,9.016901E0,4.749112E-1,-9.4938016E-1,1E0,3.4802756E-1,-6.787772E-1,1E0,6.542235E-1,1.1816374E1,6.976922E-3,1.3442413E-3,5.810923E-4,2.064735E-3,2.7384209E-5,-4.2950697E-4,-2.620177E-4,-8.509065E-4,1.0833228E-2,6.4121623E-4,-3.5434176E-4,2.04155E-3,6.4330352E-3,1.3962644E-2,-5.5171553E-5,2.563805E-3],"split_indices":[6,8,8,2,14,7,7,6,3,11,6,8,12,5,7,0,0,0,0,0,0,0,0,0,0,0,0,0,0,0,0],"split_type":[0,0,0,0,0,0,0,0,0,0,0,0,0,0,0,0,0,0,0,0,0,0,0,0,0,0,0,0,0,0,0],"sum_hessian":[4.42122E5,4.14536E5,2.7586E4,2.524E3,4.12012E5,2.2921E4,4.665E3,1.22E2,2.402E3,3.63173E5,4.8839E4,9.766E3,1.3155E4,1.35E2,4.53E3,7.1E1,5.1E1,1.257E3,1.145E3,3.31973E5,3.12E4,4.1514E4,7.325E3,3E2,9.466E3,1.1697E4,1.458E3,9.6E1,3.9E1,1.52E3,3.01E3],"tree_param":{"num_deleted":"0","num_feature":"20","num_nodes":"31","size_leaf_vector":"1"}},{"base_weights":[-2.482812E-4,-1.1207315E-3,2.688909E-2,3.9830588E-2,-1.4894386E-3,5.070645E-2,-5.7719257E-3,-1.4800952E-1,4.6811298E-2,-2.2921811E-3,1.7398925E-2,2.6299397E-2,1.6912934E-1,2.6607614E-2,-4.2339876E-2,-7.5710365E-3,-1.7512983E-3,1.0550206E-3,2.9755416E-3,-1.207347E-4,2.0060455E-4,3.4369682E-3,4.1318353E-4,2.3468488E-3,-2.5781716E-4,1.1579056E-3,1.4430602E-2,4.0986535E-5,3.5856005E-3,-1.9693216E-3,3.0170553E-3],"categories":[],"categories_nodes":[],"categories_segments":[],"categories_sizes":[],"default_left":[0,0,0,0,0,0,0,0,0,0,0,0,0,0,0,0,0,0,0,0,0,0,0,0,0,0,0,0,0,0,0],"id":41,"left_children":[1,3,5,7,9,11,13,15,17,19,21,23,25,27,29,-1,-1,-1,-1,-1,-1,-1,-1,-1,-1,-1,-1,-1,-1,-1,-1],"loss_changes":[1.0476703E1,6.472441E0,1.0725494E1,5.045142E0,6.442792E0,2.3009892E1,6.892874E0,1.2016449E0,2.2273464E0,6.340536E0,6.0889273E0,1.199484E1,5.529005E1,7.232891E0,9.136473E0,0E0,0E0,0E0,0E0,0E0,0E0,0E0,0E0,0E0,0E0,0E0,0E0,0E0,0E0,0E0,0E0],"parents":[2147483647,0,0,1,1,2,2,3,3,4,4,5,5,6,6,7,7,8,8,9,9,10,10,11,11,12,12,13,13,14,14],"right_children":[2,4,6,8,10,12,14,16,18,20,22,24,26,28,30,-1,-1,-1,-1,-1,-1,-1,-1,-1,-1,-1,-1,-1,-1,-1,-1],"split_conditions":[6.051633E-1,-4.7701716E-1,1.2578683E1,-6.787772E-1,1E0,1E0,4.9800542E-1,-3.1809884E-1,1E0,1E0,-1.8518956E-1,6.6343254E-1,8.218304E-1,-2.8064075E-1,1E0,-7.5710365E-3,-1.7512983E-3,1.0550206E-3,2.9755416E-3,-1.207347E-4,2.0060455E-4,3.4369682E-3,4.1318353E-4,2.3468488E-3,-2.5781716E-4,1.1579056E-3,1.4430602E-2,4.0986535E-5,3.5856005E-3,-1.9693216E-3,3.0170553E-3],"split_indices":[6,8,7,8,12,10,3,2,10,13,2,6,6,8,12,0,0,0,0,0,0,0,0,0,0,0,0,0,0,0,0],"split_type":[0,0,0,0,0,0,0,0,0,0,0,0,0,0,0,0,0,0,0,0,0,0,0,0,0,0,0,0,0,0,0],"sum_hessian":[4.42546E5,4.28768E5,1.3778E4,3.82E3,4.24948E5,7.967E3,5.811E3,1.33E2,3.687E3,4.07631E5,1.7317E4,6.611E3,1.356E3,3.082E3,2.729E3,5.7E1,7.6E1,3.024E3,6.63E2,3.41713E5,6.5918E4,6.17E2,1.67E4,2.655E3,3.956E3,9.6E2,3.96E2,2.428E3,6.54E2,2.349E3,3.8E2],"tree_param":{"num_deleted":"0","num_feature":"20","num_nodes":"31","size_leaf_vector":"1"}},{"base_weights":[2.422233E-5,-2.2892125E-3,9.794538E-3,6.276289E-3,-4.416458E-3,1.3766267E-3,2.251703E-2,1.9957926E-2,5.7780155E-4,-3.3964512E-3,-1.8107232E-2,-3.2283124E-3,6.686852E-2,1.5695969E-2,5.613496E-2,4.5201025E-4,1.933864E-3,-1.2532069E-4,3.1674706E-4,-6.25272E-5,-3.7164314E-4,-0E0,-7.936793E-4,2.2198728E-4,-4.133394E-4,7.6051736E-3,1.7474775E-3,8.745136E-4,-2.2260214E-5,8.7269576E-4,4.756765E-3],"categories":[],"categories_nodes":[],"categories_segments":[],"categories_sizes":[],"default_left":[0,0,0,0,0,0,0,0,0,0,0,0,0,0,0,0,0,0,0,0,0,0,0,0,0,0,0,0,0,0,0],"id":42,"left_children":[1,3,5,7,9,11,13,15,17,19,21,23,25,27,29,-1,-1,-1,-1,-1,-1,-1,-1,-1,-1,-1,-1,-1,-1,-1,-1],"loss_changes":[9.990534E0,6.5115113E0,9.061396E0,5.5415773E0,3.9963565E0,1.53652525E1,7.7181396E0,4.540612E0,2.3827682E0,3.1428003E0,3.0003796E0,5.336877E0,5.2948236E0,6.198116E0,1.5701521E1,0E0,0E0,0E0,0E0,0E0,0E0,0E0,0E0,0E0,0E0,0E0,0E0,0E0,0E0,0E0,0E0],"parents":[2147483647,0,0,1,1,2,2,3,3,4,4,5,5,6,6,7,7,8,8,9,9,10,10,11,11,12,12,13,13,14,14],"right_children":[2,4,6,8,10,12,14,16,18,20,22,24,26,28,30,-1,-1,-1,-1,-1,-1,-1,-1,-1,-1,-1,-1,-1,-1,-1,-1],"split_conditions":[3.8010618E-1,-2.1600622E-1,4.9867213E-1,2.3374252E-1,1E0,1E0,6.224224E-1,1E0,3.3408618E-1,1E0,1.0740334E1,-3.9525693E-3,-1.0830909E0,4.3909442E-1,1E0,4.5201025E-4,1.933864E-3,-1.2532069E-4,3.1674706E-4,-6.25272E-5,-3.7164314E-4,-0E0,-7.936793E-4,2.2198728E-4,-4.133394E-4,7.6051736E-3,1.7474775E-3,8.745136E-4,-2.2260214E-5,8.7269576E-4,4.756765E-3],"split_indices":[6,4,4,6,18,12,6,13,5,14,7,0,4,5,10,0,0,0,0,0,0,0,0,0,0,0,0,0,0,0,0],"split_type":[0,0,0,0,0,0,0,0,0,0,0,0,0,0,0,0,0,0,0,0,0,0,0,0,0,0,0,0,0,0,0],"sum_hessian":[4.41974E5,3.57357E5,8.4617E4,7.1087E4,2.8627E5,5.0929E4,3.3688E4,2.0896E4,5.0191E4,2.6643E5,1.984E4,4.7587E4,3.342E3,2.8013E4,5.675E3,1.8834E4,2.062E3,3.3993E4,1.6198E4,2.3251E5,3.392E4,6.262E3,1.3578E4,2.3704E4,2.3883E4,1.41E2,3.201E3,1.5404E4,1.2609E4,4.495E3,1.18E3],"tree_param":{"num_deleted":"0","num_feature":"20","num_nodes":"31","size_leaf_vector":"1"}},{"base_weights":[6.43152E-5,-2.2848598E-3,9.721426E-3,2.390321E-3,-6.1769756E-3,2.1326414E-4,3.22761E-2,3.0421132E-2,1.5607734E-3,-7.893677E-3,2.224355E-3,-4.2282487E-3,6.363595E-2,9.0777285E-2,2.9166719E-2,2.191961E-4,1.471553E-3,1.809819E-4,-7.0336995E-5,-3.276778E-4,-3.47505E-5,2.1586152E-4,-3.8675332E-4,7.241349E-5,-7.75914E-4,-2.0442521E-3,2.3249497E-3,1.8620797E-3,5.351862E-3,7.0500583E-4,2.0621556E-3],"categories":[],"categories_nodes":[],"categories_segments":[],"categories_sizes":[],"default_left":[0,0,0,0,0,0,0,0,0,0,0,0,0,0,0,0,0,0,0,0,0,0,0,0,0,0,0,0,0,0,0],"id":43,"left_children":[1,3,5,7,9,11,13,15,17,19,21,23,25,27,29,-1,-1,-1,-1,-1,-1,-1,-1,-1,-1,-1,-1,-1,-1,-1,-1],"loss_changes":[1.0042209E1,6.478672E0,1.857259E1,3.7591105E0,2.8025613E0,1.716898E1,4.652569E0,1.996572E0,2.7439125E0,3.2906456E0,2.4771838E0,8.185429E0,7.3137817E0,3.1849442E0,5.457512E0,0E0,0E0,0E0,0E0,0E0,0E0,0E0,0E0,0E0,0E0,0E0,0E0,0E0,0E0,0E0,0E0],"parents":[2147483647,0,0,1,1,2,2,3,3,4,4,5,5,6,6,7,7,8,8,9,9,10,10,11,11,12,12,13,13,14,14],"right_children":[2,4,6,8,10,12,14,16,18,20,22,24,26,28,30,-1,-1,-1,-1,-1,-1,-1,-1,-1,-1,-1,-1,-1,-1,-1,-1],"split_conditions":[3.778364E-1,4.0362035E-3,-9.582773E-2,-3.5915148E-1,1E0,1E0,9.910143E0,3.2049215E-1,1.1246711E1,2.8431183E-1,1.1890272E1,9.229422E-1,9.460371E0,5.239309E-1,1E0,2.191961E-4,1.471553E-3,1.809819E-4,-7.0336995E-5,-3.276778E-4,-3.47505E-5,2.1586152E-4,-3.8675332E-4,7.241349E-5,-7.75914E-4,-2.0442521E-3,2.3249497E-3,1.8620797E-3,5.351862E-3,7.0500583E-4,2.0621556E-3],"split_indices":[6,1,8,8,13,12,7,5,7,6,7,3,7,6,13,0,0,0,0,0,0,0,0,0,0,0,0,0,0,0,0],"split_type":[0,0,0,0,0,0,0,0,0,0,0,0,0,0,0,0,0,0,0,0,0,0,0,0,0,0,0,0,0,0,0],"sum_hessian":[4.4263E5,3.56023E5,8.6607E4,1.61736E5,1.94287E5,6.0929E4,2.5678E4,4.642E3,1.57094E5,1.61328E5,3.2959E4,5.6945E4,3.984E3,1.288E3,2.439E4,2.076E3,2.566E3,7.3239E4,8.3855E4,1.11276E5,5.0052E4,2.4807E4,8.152E3,4.3571E4,1.3374E4,3.77E2,3.607E3,9.77E2,3.11E2,2.1343E4,3.047E3],"tree_param":{"num_deleted":"0","num_feature":"20","num_nodes":"31","size_leaf_vector":"1"}},{"base_weights":[-1.1944389E-6,-1.7746395E-3,1.2340688E-2,2.8554834E-3,-4.8733633E-3,-7.5105263E-4,3.6499813E-2,8.3708465E-3,-5.656394E-4,-1.3663505E-2,-3.2035268E-3,-6.185048E-3,8.0158666E-2,4.5119308E-2,8.764345E-3,6.929734E-4,7.8364974E-5,2.8019642E-5,-6.417503E-4,-3.0014358E-4,-1.5489064E-3,-2.0523301E-4,1.5846641E-4,-2.673394E-4,3.2074666E-3,-1.5425127E-3,3.0437855E-3,1.189839E-3,2.967463E-3,-9.411174E-4,6.9738756E-4],"categories":[],"categories_nodes":[],"categories_segments":[],"categories_sizes":[],"default_left":[0,0,0,0,0,0,0,0,0,0,0,0,0,0,0,0,0,0,0,0,0,0,0,0,0,0,0,0,0,0,0],"id":44,"left_children":[1,3,5,7,9,11,13,15,17,19,21,23,25,27,29,-1,-1,-1,-1,-1,-1,-1,-1,-1,-1,-1,-1,-1,-1,-1,-1],"loss_changes":[9.680226E0,5.548725E0,1.7576618E1,2.9259546E0,3.399633E0,1.5844675E1,4.664282E0,5.0332227E0,2.9896457E0,5.131209E0,6.0104704E0,1.041505E1,6.3850536E0,4.3475113E0,2.6989863E0,0E0,0E0,0E0,0E0,0E0,0E0,0E0,0E0,0E0,0E0,0E0,0E0,0E0,0E0,0E0,0E0],"parents":[2147483647,0,0,1,1,2,2,3,3,4,4,5,5,6,6,7,7,8,8,9,9,10,10,11,11,12,12,13,13,14,14],"right_children":[2,4,6,8,10,12,14,16,18,20,22,24,26,28,30,-1,-1,-1,-1,-1,-1,-1,-1,-1,-1,-1,-1,-1,-1,-1,-1],"split_conditions":[4.2919993E-1,-5.6338026E-3,-1.3844436E-1,-2.0886159E-1,-1.5271914E-1,1E0,4.0423715E-1,2.3374252E-1,1E0,1E0,2.8431183E-1,1.7790498E0,9.544979E0,6.4035445E-1,1.167067E1,6.929734E-4,7.8364974E-5,2.8019642E-5,-6.417503E-4,-3.0014358E-4,-1.5489064E-3,-2.0523301E-4,1.5846641E-4,-2.673394E-4,3.2074666E-3,-1.5425127E-3,3.0437855E-3,1.189839E-3,2.967463E-3,-9.411174E-4,6.9738756E-4],"split_indices":[6,1,8,4,8,12,2,6,18,18,6,4,7,6,7,0,0,0,0,0,0,0,0,0,0,0,0,0,0,0,0],"split_type":[0,0,0,0,0,0,0,0,0,0,0,0,0,0,0,0,0,0,0,0,0,0,0,0,0,0,0,0,0,0,0],"sum_hessian":[4.42283E5,3.86722E5,5.5561E4,1.55042E5,2.3168E5,3.6036E4,1.9525E4,5.9357E4,9.5685E4,3.6975E4,1.94705E5,3.3773E4,2.263E3,1.4892E4,4.633E3,1.6678E4,4.2679E4,8.926E4,6.425E3,3.3732E4,3.243E3,1.36289E5,5.8416E4,3.2983E4,7.9E2,3.14E2,1.949E3,1.3529E4,1.363E3,1.226E3,3.407E3],"tree_param":{"num_deleted":"0","num_feature":"20","num_nodes":"31","size_leaf_vector":"1"}},{"base_weights":[-1.0629054E-4,-1.8418598E-3,1.2033416E-2,1.6181587E-3,-5.8778785E-3,-1.1203814E-3,3.628861E-2,2.3216726E-2,9.0529147E-4,-1.774479E-2,-4.2147906E-3,-6.3180886E-3,7.6508865E-2,3.019534E-2,9.281924E-2,5.3561624E-4,2.211009E-3,-1.4990101E-5,3.6461762E-4,-9.07179E-4,-1.3553222E-4,-2.443518E-4,1.20529156E-4,-2.7155096E-4,3.3489126E-3,-1.4883298E-3,2.8732924E-3,7.435405E-4,2.2604163E-3,7.2862045E-3,2.14962E-3],"categories":[],"categories_nodes":[],"categories_segments":[],"categories_sizes":[],"default_left":[0,0,0,0,0,0,0,0,0,0,0,0,0,0,0,0,0,0,0,0,0,0,0,0,0,0,0,0,0,0,0],"id":45,"left_children":[1,3,5,7,9,11,13,15,17,19,21,23,25,27,29,-1,-1,-1,-1,-1,-1,-1,-1,-1,-1,-1,-1,-1,-1,-1,-1],"loss_changes":[9.310547E0,5.3997254E0,1.7637016E1,3.2039866E0,3.5209193E0,1.4460943E1,6.6750355E0,1.788966E0,3.1856346E0,3.6223478E0,5.065649E0,1.0832767E1,5.491184E0,4.2741203E0,5.893421E0,0E0,0E0,0E0,0E0,0E0,0E0,0E0,0E0,0E0,0E0,0E0,0E0,0E0,0E0,0E0,0E0],"parents":[2147483647,0,0,1,1,2,2,3,3,4,4,5,5,6,6,7,7,8,8,9,9,10,10,11,11,12,12,13,13,14,14],"right_children":[2,4,6,8,10,12,14,16,18,20,22,24,26,28,30,-1,-1,-1,-1,-1,-1,-1,-1,-1,-1,-1,-1,-1,-1,-1,-1],"split_conditions":[4.2919993E-1,1.8625561E-2,-1.3844436E-1,-3.6669996E-1,-1.7250717E-1,1E0,1E0,1E0,1E0,2.972092E-1,2.8633586E-1,1.7790498E0,9.544979E0,1E0,6.0534593E-2,5.3561624E-4,2.211009E-3,-1.4990101E-5,3.6461762E-4,-9.07179E-4,-1.3553222E-4,-2.443518E-4,1.20529156E-4,-2.7155096E-4,3.3489126E-3,-1.4883298E-3,2.8732924E-3,7.435405E-4,2.2604163E-3,7.2862045E-3,2.14962E-3],"split_indices":[6,1,8,8,8,12,15,15,16,5,6,4,7,13,2,0,0,0,0,0,0,0,0,0,0,0,0,0,0,0,0],"split_type":[0,0,0,0,0,0,0,0,0,0,0,0,0,0,0,0,0,0,0,0,0,0,0,0,0,0,0,0,0,0,0],"sum_hessian":[4.41915E5,3.86646E5,5.5269E4,2.08173E5,1.78473E5,3.5837E4,1.9432E4,6.644E3,2.01529E5,2.1928E4,1.56545E5,3.3593E4,2.244E3,1.7549E4,1.883E3,6.013E3,6.31E2,1.79153E5,2.2376E4,1.1271E4,1.0657E4,1.05963E5,5.0582E4,3.2837E4,7.56E2,2.96E2,1.948E3,1.5679E4,1.87E3,2.26E2,1.657E3],"tree_param":{"num_deleted":"0","num_feature":"20","num_nodes":"31","size_leaf_vector":"1"}},{"base_weights":[1.546252E-4,-7.168385E-4,2.7306706E-2,3.8559977E-2,-1.0714683E-3,5.4951146E-2,-3.856907E-3,-1.4989097E-1,4.497423E-2,2.1868867E-4,-1.0848867E-2,2.69817E-2,1.9693202E-1,-1.34949135E-2,9.092188E-2,-7.942571E-3,-1.957136E-3,1.5750914E-3,-1.3971154E-3,4.4249257E-4,-3.309753E-5,-2.2672377E-4,-8.4181764E-4,2.3578366E-3,